tree
version=v4
num_class=1
num_tree_per_iteration=1
label_index=0
max_feature_idx=7
objective=regression
feature_names=runtime temperature vibration pressure load machine_id_enc shift_enc maintenance_enc
feature_infos=[0.44479999999999997:999.95748000000003] [41.629800000000003:70.669280000000001] [4.8661799999999999:36.28125] [0.0073499999999999998:12.5288] [55.767180000000003:85.494320000000002] [0:3] [0:1] [0:1]
tree_sizes=2220 2408 2257 2431 2434 2229 2357 2248 2348 2239 2385 2237 2386 2350 2385 2244 2363 2267 2349 2258 2370 2357 2234 2388 2267 2237 2253 2361 2374 2256 2359 2253 2372 2361 2320 2251 2249 2374 2377 2339 2262 2344 2364 2297 2359 2252 2343 2259 2375 2356 2361 2295 2378 2302 2261 2362 2259 2278 2320 2354 2278 2336 2333 2270 2349 2363 2366 2253 2317 2328 2298 2297 2253 2360 2359 2334 2280 2264 2312 2316 2377 2333 2323 2281 2324 2299 2326 2329 2304 2313 2328 2299 2325 2273 2314 2341 2341 2356 2333 2351 2389 2331 2335 2336 2351 2364 2334 2283 2355 2373 2324 2310 2358 2358 2305 2387 2289 2353 2379 2391 2358 2338 2340 2302 2378 2349 2350 2305 2314 2284 2360 2339 2351 2402 2375 2321 2290 2333 2345 2376 2345 2322 2327 2319 2399 2422 2361 2328 2332 2378 2317 2359 2362 2380 2416 2382 2305 2309 2293 2372 2391 2413 2368 2397 2413 2354 2362 2346 2401 2346 2449 2350 2332 2358 2420 2406 2421 2425 2370 2434 2343 2368 2352 2359 2383 2333 2423 2466 2353 2420 2451 2420 2378 2351 2383 2397 2415 2467 2453 2355 2371 2388 2400 2427 2404 2374 2479 2450 2466 2391 2359 2385 2437 2418 2459 2457 2464 2402 2487 2448 2485 2419 2406 2440 2421 2507 2437 2411 2394 2487 2387 2425 2445 2403 2461 2513 2459 2457 2523 2439 2465 2491 2483 2506 2528 2498 2462 2424 2433 2437 2460 2458 2486 2549 2501 2479 2498 2449 2482 2487 2479 2505 2443 2481 2440 2446 2491 2522 2460 2522 2486 2552 2488 2451 2463 2445 2594 2565 2503 2531 2484 2461 2469 2469 2479 2502 2402 2482 2515 2443 2479 2523 2482 2493 2511 2538 2478 2469 2482 2498 2524 2457 2475 2517 2543 2545 2490 2572 2549 2449 2495 2488 2614 2587 2552 2499 2533 2495 2557 2543 2516 2503 2577 2572 2547 2561 2533 2517 2481 2510 2551 2593 2467 2513 2542 2517 2524 2526 2497 2509 2494 2514 2507 2562 2555 2584 2549 2599 2479 2419 2550 2509 2483 2516 2605 2556 2549 2608 2631 2640 2581 2588 2537 2515 2527 2500 2520 2562 2543 2578 2592 2551 2559 2512 2507 2511 2555 2601 2503 2583 2551 2553 2561 2558 2521 2604 2568 2619 2537 2565

Tree=0
num_leaves=26
num_cat=0
split_feature=0 0 2 0 0 0 2 2 2 0 2 2 2 2 2 0 2 0 2 0 2 2 0 0 2
split_gain=2.83663e+08 2.6939e+07 2.24417e+07 3.78221e+06 3.18557e+06 1.97999e+06 1.18606e+06 520247 462531 376553 298941 260616 173932 91525 87361.8 78127.2 71877.8 59260.4 53143.9 50701.3 39709.6 34046.8 30206.5 28205.2 26784.7
threshold=431.87586000000005 239.13249000000005 15.633170000000002 117.39847000000002 337.70706500000006 505.41109000000006 17.308800000000002 6.0735850000000005 7.8347700000000016 383.43862500000006 5.2295250000000006 14.466140000000001 12.660670000000001 16.693080000000005 18.452200000000001 314.14689000000004 6.392170000000001 458.08460500000007 10.668335000000003 42.028740000000006 7.3043300000000011 9.3770850000000028 97.867495000000005 143.35985000000002 13.745735000000002
decision_type=2 2 2 2 2 2 2 2 2 2 2 2 2 2 2 2 2 2 2 2 2 2 2 2 2
left_child=1 3 5 10 8 12 13 23 20 21 19 24 17 -4 -8 -10 -9 -2 -11 -1 -3 -6 -12 -5 -7
right_child=2 4 6 7 9 11 14 16 15 18 22 -13 -14 -15 -16 -17 -18 -19 -20 -21 -22 -23 -24 -25 -26
leaf_value=372.69005378993762 361.51537128111875 367.40720937697307 356.69215565011422 370.244541334389 364.47691071513464 359.32452485476529 354.84727471851403 368.98697054459041 365.94372181265368 363.04892972628522 371.47978815587464 357.5537481826521 359.95400383753326 355.66563026058992 354.25080277263203 365.0966338368969 368.2152774082262 360.78466767713888 362.3318051879682 372.06416214065376 366.74574606449829 363.82855278521311 370.84937333502887 369.71214077438106 358.67641434991185
leaf_weight=121 75 60 69 72 57 35 94 64 78 78 75 101 60 54 963 74 123 80 67 72 67 56 41 67 61
leaf_count=121 75 60 69 72 57 35 94 64 78 78 75 101 60 54 963 74 123 80 67 72 67 56 41 67 61
internal_value=360.949 367.922 355.816 370.526 364.843 359.568 354.506 369.123 366.226 363.347 372.006 358.216 360.808 356.241 354.304 365.531 368.479 361.138 362.718 372.457 367.058 364.156 371.257 369.988 358.913
internal_weight=2764 1172 1592 635 537 412 1180 326 279 258 309 197 215 123 1057 152 187 155 145 193 127 113 116 139 96
internal_count=2764 1172 1592 635 537 412 1180 326 279 258 309 197 215 123 1057 152 187 155 145 193 127 113 116 139 96
is_linear=0
shrinkage=1


Tree=1
num_leaves=26
num_cat=0
split_feature=2 2 2 2 2 2 2 2 2 2 7 2 2 7 2 7 7 7 7 7 7 2 7 7 7
split_gain=2.73168e+08 2.67494e+07 2.06611e+07 3.53091e+06 3.38977e+06 1.77933e+06 1.14217e+06 526226 468019 365457 309117 278838 250972 190890 159987 158814 155199 150697 114904 102369 100100 84129.2 82049.2 73080.2 72820.8
threshold=11.344175000000002 6.9215950000000008 15.633170000000002 5.5361800000000008 9.0204900000000023 13.366535000000002 17.308800000000002 7.8347700000000016 6.0735850000000005 10.045130000000002 1.0000000180025095e-35 5.1726600000000014 14.466140000000001 1.0000000180025095e-35 12.405490000000002 1.0000000180025095e-35 1.0000000180025095e-35 1.0000000180025095e-35 1.0000000180025095e-35 1.0000000180025095e-35 1.0000000180025095e-35 18.452200000000001 1.0000000180025095e-35 1.0000000180025095e-35 1.0000000180025095e-35
decision_type=2 2 2 2 2 2 2 2 2 2 2 2 2 2 2 2 2 2 2 2 2 2 2 2 2
left_child=1 3 5 10 7 13 19 17 22 23 11 -1 20 14 -2 -11 -9 -3 -10 -4 -7 24 -5 -6 -8
right_child=2 4 6 8 9 12 21 16 18 15 -12 -13 -14 -15 -16 -17 -18 -19 -20 -21 -22 -23 -24 -25 -26
leaf_value=11.096251339719217 -0.014026950137822408 5.7558401564701187 -4.8291783339188861 8.695422406736796 2.8588625728523906 -2.2586300667652055 -6.1995535222038152 4.2191543468617025 7.2396432368782344 1.3561902119187716 12.319653338404159 9.8825508181994124 -3.3642777072420462 1.3765742617262091 -1.1713753951870016 3.186862196286349 6.1059293420861689 7.5924108085763775 8.9468459232798043 -3.0134403048238423 -0.4351926820805842 -6.6055394230042719 10.377263023333386 4.5303539894704805 -4.5136957025095832
leaf_weight=155 116 116 111 126 104 84 84 144 165 127 41 115 101 23 65 19 17 18 14.999999999999998 11.999999999999998 11.999999999999998 963 10.999999999999998 9.9999999999999982 9.9999999999999982
leaf_count=155 116 116 111 126 104 84 84 144 165 127 41 115 101 23 65 19 17 18 15 12 12 963 11 10 10
internal_value=-0.0321751 6.75498 -5.11074 9.39496 3.76777 -1.44849 -6.35528 5.13797 8.00794 2.21312 10.8087 10.5793 -2.71441 -0.226006 -0.429649 1.59443 4.41838 6.00254 7.38191 -4.65203 -2.0307 -6.55349 8.83046 3.00548 -6.02021
internal_weight=2764 1183 1581 628 555 401 1180 295 317 260 311 270 197 204 181 146 161 134 180 123 96 1057 137 114 94
internal_count=2764 1183 1581 628 555 401 1180 295 317 260 311 270 197 204 181 146 161 134 180 123 96 1057 137 114 94
is_linear=0
shrinkage=0.0186753


Tree=2
num_leaves=26
num_cat=0
split_feature=0 3 2 0 3 0 2 3 0 2 3 2 2 2 2 2 0 2 0 2 0 0 0 0 2
split_gain=2.63068e+08 2.49923e+07 2.08088e+07 3.52144e+06 2.94218e+06 1.83523e+06 1.09991e+06 488220 436054 340604 295960 241686 162034 87890.1 81016.3 68249.6 56178 50691.3 48956.7 48676.7 44363.3 37443.3 26518.6 26416.5 25592.2
threshold=431.87586000000005 1.4217500000000001 15.633170000000002 117.39847000000002 2.2241600000000008 505.41109000000006 17.308800000000002 0.94364500000000018 383.43862500000006 7.8347700000000016 0.38223500000000005 14.466140000000001 12.660670000000001 16.693080000000005 18.452200000000001 6.392170000000001 458.08460500000007 10.668335000000003 314.14689000000004 9.174570000000001 24.547045000000004 265.74850000000009 143.35985000000002 97.867495000000005 13.745735000000002
decision_type=2 2 2 2 2 2 2 2 2 2 2 2 2 2 2 2 2 2 2 2 2 2 2 2 2
left_child=1 3 5 10 9 12 13 22 19 21 20 24 16 -4 -8 -9 -2 -10 -11 -6 -1 -3 -5 -12 -7
right_child=2 4 6 7 8 11 14 15 17 18 23 -13 -14 -15 -16 -17 -18 -19 -20 -21 -22 -23 -24 -25 -26
leaf_value=11.442418277551912 0.51768220768457063 6.1002851660486206 -4.1235248566587481 8.9241436568519212 3.4858942635239645 -1.5902281473341053 -5.9077776063317522 7.7108999057096206 1.9950090463896688 4.7852468873077907 10.082186286356485 -3.3014487492411684 -0.99252348503355903 -5.1294598296316316 -6.4821788888856888 6.959973748034578 -0.19376377953141566 1.2946274685569017 4.0537413702996581 2.7697012942037982 10.852620246226378 5.4398986562503948 8.4079067049315181 9.4940178755587308 -2.2237467393382526
leaf_weight=70 75 77 69 72 71 35 94 64 78 78 76 101 60 54 963 124 80 67 54 62 122 49 67 41 61
leaf_count=70 75 77 69 72 71 35 94 64 78 78 76 101 60 54 963 124 80 67 54 62 122 49 67 41 61
internal_value=-0.0315743 6.68335 -4.97498 9.18694 3.71268 -1.3616 -6.2366 7.83609 2.37975 5.14895 10.6165 -2.66372 -0.168495 -4.56515 -6.4311 7.21561 0.150484 1.67138 4.48599 3.15203 11.0677 5.84347 8.67531 9.87608 -1.99278
internal_weight=2764 1172 1592 636 536 412 1180 327 278 258 309 197 215 123 1057 188 155 145 132 133 192 126 139 117 96
internal_count=2764 1172 1592 636 536 412 1180 327 278 258 309 197 215 123 1057 188 155 145 132 133 192 126 139 117 96
is_linear=0
shrinkage=0.0186753


Tree=3
num_leaves=26
num_cat=0
split_feature=2 3 2 2 3 2 2 2 2 3 2 2 7 7 2 7 7 7 7 7 7 7 7 3 7
split_gain=2.45822e+08 2.40129e+07 2.01305e+07 3.52474e+06 2.77086e+06 1.6784e+06 1.0442e+06 431614 416481 334071 284465 254397 204977 197285 168804 134149 126572 113736 106941 105249 104326 102035 91694.7 92875.9 86250
threshold=11.155625000000002 1.4489950000000003 15.633170000000002 5.592340000000001 2.2241600000000008 13.366535000000002 17.308800000000002 10.199965000000001 6.2113850000000008 0.38223500000000005 7.7202200000000003 14.466140000000001 1.0000000180025095e-35 1.0000000180025095e-35 12.32859 1.0000000180025095e-35 1.0000000180025095e-35 1.0000000180025095e-35 1.0000000180025095e-35 1.0000000180025095e-35 1.0000000180025095e-35 1.0000000180025095e-35 1.0000000180025095e-35 2.4900200000000008 1.0000000180025095e-35
decision_type=2 2 2 2 2 2 2 2 2 2 2 2 2 2 2 2 2 2 2 2 2 2 2 2 2
left_child=1 3 5 9 10 12 21 22 24 13 17 20 14 -1 -2 -12 -10 -3 -11 -9 -7 -4 23 -6 -5
right_child=2 4 6 8 7 11 -8 19 16 18 15 -13 -14 -15 -16 -17 -18 -19 -20 -21 -22 -23 -24 -25 -26
leaf_value=10.635618577439255 0.058525225642488118 5.5106420792859305 -4.6714021758908562 8.1335818724366504 3.2668606595444243 -2.1685495684872795 -6.3167310580434455 1.2630296298304606 6.7597763399297603 9.4130937961043877 4.2544761248733369 -3.2610644683536334 1.3261215068235437 12.449917566942815 -1.060622491972083 6.1285896083736775 8.5082872188255649 7.2657489091086234 11.147876823303037 3.0434689581341905 -0.47923440866921635 -2.8586277154611079 4.3196036065042627 2.3489094066071514 9.7758865262511563
leaf_weight=162 112 91 111 158 74 85 1013 106 148 108 119 96 27 24 81 14.999999999999998 15.999999999999998 14.999999999999998 13.999999999999998 12.999999999999998 14.999999999999998 11.999999999999998 14.999999999999998 80 11.999999999999998
leaf_count=162 112 91 111 158 74 85 1013 106 148 108 119 96 27 24 81 15 16 15 14 13 15 12 15 80 12
internal_value=0.0404887 6.50429 -4.83235 8.93061 3.5541 -1.31761 -6.11943 2.3191 7.60178 10.3716 5.03611 -2.57437 -0.197956 10.8697 -0.411169 4.46426 6.93036 5.75901 9.61217 1.45753 -1.91515 -4.49455 2.92577 2.79 8.24951
internal_weight=2722 1170 1552 642 528 416 1136 288 334 308 240 196 220 186 193 134 164 106 122 119 100 123 169 154 170
internal_count=2722 1170 1552 642 528 416 1136 288 334 308 240 196 220 186 193 134 164 106 122 119 100 123 169 154 170
is_linear=0
shrinkage=0.0186753


Tree=4
num_leaves=26
num_cat=0
split_feature=2 3 2 2 2 2 2 2 2 2 3 2 7 7 2 7 7 7 7 7 7 7 7 7 2
split_gain=2.36728e+08 2.38067e+07 1.86273e+07 3.39431e+06 2.81109e+06 1.52016e+06 1.00556e+06 401673 383926 350608 321709 216634 199305 189985 167295 144437 120943 119786 107322 102984 98259.5 82475.3 77067.3 76549.4 71059.7
threshold=11.344175000000002 1.4489950000000003 15.633170000000002 5.592340000000001 9.0204900000000023 13.472800000000001 17.308800000000002 6.1669500000000008 7.8347700000000016 10.199965000000001 0.38223500000000005 14.466140000000001 1.0000000180025095e-35 1.0000000180025095e-35 12.405490000000002 1.0000000180025095e-35 1.0000000180025095e-35 1.0000000180025095e-35 1.0000000180025095e-35 1.0000000180025095e-35 1.0000000180025095e-35 1.0000000180025095e-35 1.0000000180025095e-35 1.0000000180025095e-35 6.664340000000001
decision_type=2 2 2 2 2 2 2 2 2 2 2 2 2 2 2 2 2 2 2 2 2 2 2 2 2
left_child=1 3 5 10 8 12 20 23 16 22 13 21 14 -1 -2 -10 -3 24 -11 -12 -4 -7 -6 -5 -9
right_child=2 4 6 7 9 11 -8 17 15 18 19 -13 -14 -15 -16 -17 -18 -19 -20 -21 -22 -23 -24 -25 -26
leaf_value=10.436994728005319 -0.040188393538490172 5.3568627858654061 -4.5841621298360202 8.0584269331294216 2.592339518802147 -2.1579563105819952 -6.1987637654677181 6.9929985346680104 3.9827566282516789 1.1937414905076722 9.2373011683677007 -3.2001630071434701 1.1827699856168452 12.217411279936488 -1.1624767318331004 5.8564836347108145 7.106830221725688 8.3685399715245712 2.9255306113286084 10.939687018238452 -2.8052418743264971 -0.55126523806124927 4.1026076723644067 9.6768109930145467 6.1733106677973835
leaf_weight=162 112 99 111 139 126 78 1013 112 139 115 108 96 28 24 79 15.999999999999998 15.999999999999998 17 13.999999999999998 13.999999999999998 11.999999999999998 12.999999999999998 12.999999999999998 10.999999999999998 55
leaf_count=162 112 99 111 139 126 78 1013 112 139 115 108 96 28 24 79 16 16 17 14 14 12 13 13 11 55
internal_value=0.0397326 6.33553 -4.77806 8.76382 3.43783 -1.34464 -6.00515 7.45982 4.78276 2.08286 10.1779 -2.5813 -0.288672 10.6667 -0.504381 4.17617 5.60034 6.87507 1.38169 9.43266 -4.41061 -1.92843 2.73359 8.17711 6.72304
internal_weight=2722 1180 1542 642 538 406 1136 334 270 268 308 187 219 186 191 155 115 184 129 122 123 91 139 150 167
internal_count=2722 1180 1542 642 538 406 1136 334 270 268 308 187 219 186 191 155 115 184 129 122 123 91 139 150 167
is_linear=0
shrinkage=0.0186753


Tree=5
num_leaves=26
num_cat=0
split_feature=0 0 2 0 2 0 2 0 2 0 2 2 2 2 2 0 2 2 0 0 0 2 2 0 2
split_gain=2.27979e+08 2.2194e+07 1.87378e+07 3.1291e+06 2.72589e+06 1.56645e+06 968355 468057 386647 255185 249255 235465 148892 78956.1 68491.1 66724 65826.6 50763.5 49166 48169.5 36089.3 34315.9 22088.8 20546 19640.1
threshold=431.87586000000005 239.13249000000005 15.633170000000002 117.39847000000002 8.5838000000000019 505.41109000000006 17.308800000000002 383.43862500000006 6.1461300000000003 45.974530000000009 7.6432600000000006 14.466140000000001 12.154775000000003 16.693080000000005 9.174570000000001 86.651060000000015 18.452200000000001 10.668335000000003 215.90377000000004 314.14689000000004 143.35985000000002 12.931285000000001 11.763715000000001 24.547045000000004 14.831635
decision_type=2 2 2 2 2 2 2 2 2 2 2 2 2 2 2 2 2 2 2 2 2 2 2 2 2
left_child=1 3 5 9 10 12 13 14 20 23 -3 -7 22 -4 -6 -11 -8 -9 -10 -12 -5 -14 -2 -1 -13
right_child=2 4 6 8 7 11 16 17 18 15 19 24 21 -15 -16 -17 -18 -19 -20 -21 -22 -23 -24 -25 -26
leaf_value=10.883099539800646 0.54602453026276787 5.7211932486485368 -3.9027037532465934 8.4300964203109707 3.375573005093925 -1.8455355027905205 -5.5823511002421853 1.878214524859869 7.022329401890226 9.902016503857805 4.6693817421913817 -2.7021027875662651 -0.41018149475670795 -4.8543560030376565 2.5948468470768042 9.1631545171638553 -6.1282683254650312 1.1801122129148029 6.351155157318404 3.8226172097372975 7.8465266299069327 -1.0831112473428386 -0.039901372141331853 10.402249389629675 -3.3031944780374629
leaf_weight=71 66 97 68 66 86 100 84 78 129 94 107 26 82 55 72 78 929 68 54 30 84 39 34 55 70
leaf_count=71 66 97 68 66 86 100 84 78 129 94 107 26 82 55 72 78 929 68 54 30 84 39 34 55 70
internal_value=0.0389906 6.26844 -4.65015 8.6445 3.48166 -1.26433 -5.893 2.31538 7.40041 10.0347 4.99683 -2.47975 -0.186404 -4.32824 3.0198 9.56695 -6.083 1.55307 6.82428 4.48396 8.1033 -0.627076 0.34681 10.6732 -3.1404
internal_weight=2722 1169 1553 631 538 417 1136 304 333 298 234 196 221 123 158 172 1013 146 183 137 150 121 100 126 96
internal_count=2722 1169 1553 631 538 417 1136 304 333 298 234 196 221 123 158 172 1013 146 183 137 150 121 100 126 96
is_linear=0
shrinkage=0.0186753


Tree=6
num_leaves=26
num_cat=0
split_feature=0 3 3 0 3 0 0 3 0 7 7 0 0 3 0 7 7 7 7 7 0 7 0 7 0
split_gain=2.23419e+08 2.11518e+07 1.83176e+07 2.95585e+06 2.6274e+06 1.54926e+06 923222 403311 382196 279584 272203 230786 214438 210525 173979 145782 112631 110444 85029.8 84092.6 83042.3 73821.5 68918.4 66279.4 64025.7
threshold=431.87586000000005 1.4217500000000001 5.022590000000001 117.39847000000002 2.2241600000000008 509.26214500000003 623.12010000000009 0.94364500000000018 383.43862500000006 1.0000000180025095e-35 1.0000000180025095e-35 286.10802000000007 48.875230000000009 4.5586600000000006 484.21777500000002 1.0000000180025095e-35 1.0000000180025095e-35 1.0000000180025095e-35 1.0000000180025095e-35 1.0000000180025095e-35 602.00537500000007 1.0000000180025095e-35 212.97985000000003 1.0000000180025095e-35 458.08460500000007
decision_type=2 2 2 2 2 2 2 2 2 2 2 2 2 2 2 2 2 2 2 2 2 2 2 2 2
left_child=1 3 5 9 10 14 20 21 19 12 11 -3 -1 18 17 -10 22 24 -7 -6 -4 -5 -9 -16 -2
right_child=2 4 6 7 8 13 -8 16 15 -11 -12 -13 -14 -15 23 -17 -18 -19 -20 -21 -22 -23 -24 -25 -26
leaf_value=10.206004649214121 0.35097078648189328 5.1893045570279765 -3.8702379570576988 7.9109455911527364 2.7935149855026773 -2.0812587863872518 -5.9737765771706526 6.8360965851970228 1.33539546931588 11.210909421690031 6.3866547489848848 3.9930712010895264 9.1158050621992164 -3.0951567223157599 -1.2187007306159663 3.0507852028275555 8.1754684870052845 1.5228557941887888 -0.48879159868314909 4.429059356577457 -4.8227492840971795 9.4433563938883562 6.0426671571720805 0.50380166179541419 -0.43435564045783343
leaf_weight=113 75 113 71 127 127 71 1037 120 127 44 34 112 142 96 58 20 17 18 13.999999999999998 11.999999999999998 58 11.999999999999998 56 8.9999999999999982 70
leaf_count=113 75 113 71 127 127 71 1037 120 127 44 34 112 142 96 58 20 17 18 14 12 58 12 56 9 70
internal_value=0.000775013 6.16158 -4.59346 8.48925 3.4666 -1.20333 -5.78843 7.27625 2.23264 9.83613 4.8292 4.59385 9.59891 -2.49584 -0.186179 1.56878 6.72385 0.143125 -1.81897 2.93471 -4.2985 8.04324 6.58364 -0.98732 -0.0281523
internal_weight=2753 1176 1577 631 545 411 1166 332 286 299 259 225 255 181 230 147 193 163 85 139 129 139 176 67 145
internal_count=2753 1176 1577 631 545 411 1166 332 286 299 259 225 255 181 230 147 193 163 85 139 129 139 176 67 145
is_linear=0
shrinkage=0.0186753


Tree=7
num_leaves=26
num_cat=0
split_feature=0 3 3 0 3 0 0 3 0 0 3 3 0 0 0 3 0 0 0 0 3 3 0 0 0
split_gain=2.15152e+08 2.03691e+07 1.76399e+07 2.84648e+06 2.53018e+06 1.49194e+06 889061 388388 368054 262790 231602 202735 167541 79969.6 56376.4 55354.1 52782.5 47486 47464.4 45197.4 41517.6 24586.3 23242 20928.9 18749.6
threshold=431.87586000000005 1.4217500000000001 5.022590000000001 117.39847000000002 2.2241600000000008 509.26214500000003 623.12010000000009 0.94364500000000018 383.43862500000006 283.55533500000007 0.38223500000000005 4.5586600000000006 484.21777500000002 602.00537500000007 215.90377000000004 6.081570000000001 314.14689000000004 407.71849000000003 24.547045000000004 359.75222000000002 3.5030700000000006 1.6999550000000003 143.35985000000002 95.888140000000007 189.80456000000001
decision_type=2 2 2 2 2 2 2 2 2 2 2 2 2 2 2 2 2 2 2 2 2 2 2 2 2
left_child=1 3 5 10 9 12 13 22 19 21 18 -7 20 -4 24 -8 -11 -10 -1 -6 -2 -3 -5 -12 -9
right_child=2 4 6 7 8 11 15 14 17 16 23 -13 -14 -15 -16 -17 -18 -19 -20 -21 -22 -23 -24 -25 -26
leaf_value=10.491083346084087 0.48399645743276637 5.5305323660764136 -3.7979599186171833 8.1259836196445221 3.1648698819272698 -1.7850001617864828 -5.3837863495849048 7.0592109399921963 1.891522005627897 4.4402424951018871 9.2332960675914251 -3.0373536427118459 -0.96888124040626888 -4.7326827244761285 6.1052570752552615 -5.901126890891903 3.6654587101762952 1.2194499807474113 9.8538134484899764 2.4819398526256355 -0.11813027734198391 4.9207063672466491 7.6426913186892458 8.7332727998391366 6.6158330897162383
leaf_weight=62 70 90 71 72 81 85 78 58 70 92 65 96 67 58 57 959 46 77 119 58 93 31 67 53 78
leaf_count=62 70 90 71 72 81 85 78 58 70 92 65 96 67 58 57 959 46 77 119 58 93 31 67 53 78
internal_value=0.000760612 6.04651 -4.50767 8.33071 3.40186 -1.18086 -5.68033 7.14036 2.19095 4.73901 9.65244 -2.44923 -0.182702 -4.21822 6.59828 -5.86221 4.18198 1.53948 10.0721 2.87991 0.140452 5.3743 7.89303 9.00871 6.80492
internal_weight=2753 1176 1577 631 545 411 1166 332 286 259 299 181 230 129 193 1037 138 147 181 139 163 121 139 118 136
internal_count=2753 1176 1577 631 545 411 1166 332 286 259 299 181 230 129 193 1037 138 147 181 139 163 121 139 118 136
is_linear=0
shrinkage=0.0186753


Tree=8
num_leaves=26
num_cat=0
split_feature=2 3 2 2 3 2 2 2 3 7 7 2 3 2 7 3 7 7 7 2 7 7 2 2 7
split_gain=2.07194e+08 2.01919e+07 1.6335e+07 2.73157e+06 2.57141e+06 1.35421e+06 867034 391375 340358 285374 261450 229624 213597 188920 148645 142288 121795 108789 81797.7 76570.9 75114.7 71609.6 67341 67207.7 67779.9
threshold=11.344175000000002 1.4217500000000001 15.633170000000002 5.592340000000001 2.2241600000000008 13.69308 17.308800000000002 9.8690500000000014 0.94364500000000018 1.0000000180025095e-35 1.0000000180025095e-35 5.1726600000000014 1.8178600000000003 12.931285000000001 1.0000000180025095e-35 4.6317150000000007 1.0000000180025095e-35 1.0000000180025095e-35 1.0000000180025095e-35 11.924630000000002 1.0000000180025095e-35 1.0000000180025095e-35 6.436440000000001 18.452200000000001 1.0000000180025095e-35
decision_type=2 2 2 2 2 2 2 2 2 2 2 2 2 2 2 2 2 2 2 2 2 2 2 2 2
left_child=1 3 5 9 10 13 21 18 20 11 12 -1 -3 16 -9 -7 19 22 -6 -2 -5 -4 -10 24 -8
right_child=2 4 6 8 7 15 23 14 17 -11 -12 -13 -14 -15 -16 -17 -18 -19 -20 -21 -22 -23 -24 -25 -26
leaf_value=9.7098320133691995 0.29969697139559676 4.9876371121079739 -4.2124760042697513 7.5697926069050583 2.681088269227125 -1.9747658276183127 -5.4269298291849317 1.2317956340296419 6.751472118766384 10.822268785344709 6.1768943800921816 8.6075213462397056 3.8367208725159059 -1.2040509366998424 2.9207949586860331 -3.0788295079406409 1.3088777510965981 7.9017007497150749 4.293616991125969 -0.53819425207695271 9.1212603752298556 -2.5624700863055661 6.0150920564278314 -5.7912784313517784 -3.716419701134988
leaf_weight=142 67 114 111 117 128 84 79 135 77 44 34 123 111 60 21 79 22 17 11.999999999999998 88 11.999999999999998 9.9999999999999982 99 958 8.9999999999999982
leaf_count=142 67 114 111 117 128 84 79 135 77 44 34 123 111 60 21 79 22 17 12 88 12 10 99 958 9
internal_value=0.000746361 5.88982 -4.45646 8.17513 3.29155 -1.19959 -5.57278 2.10247 6.97145 9.42945 4.65051 9.19819 4.41985 -0.298435 1.45916 -2.50986 0.00855319 6.47506 2.81931 -0.176009 7.71412 -4.07611 6.33726 -5.74591 -5.25199
internal_weight=2753 1186 1567 631 555 400 1167 296 322 309 259 265 225 237 156 163 177 193 140 155 129 121 176 1046 88
internal_count=2753 1186 1567 631 555 400 1167 296 322 309 259 265 225 237 156 163 177 193 140 155 129 121 176 1046 88
is_linear=0
shrinkage=0.0186753


Tree=9
num_leaves=26
num_cat=0
split_feature=2 3 2 3 2 2 2 3 2 3 2 3 2 2 2 2 2 2 3 2 2 2 2 2 2
split_gain=1.97324e+08 1.86655e+07 1.59932e+07 2.72516e+06 2.25376e+06 1.35925e+06 861817 336786 297590 237236 234437 180139 138048 69992.4 64325.9 62349.7 53497.5 40262.2 37372.6 34442.1 27892.8 23404.6 21342.9 19644.8 17227
threshold=11.155625000000002 1.4217500000000001 15.633170000000002 0.61337500000000011 9.0204900000000023 13.472800000000001 17.308800000000002 0.94364500000000018 7.8347700000000016 0.38223500000000005 10.199965000000001 4.5586600000000006 12.32859 16.693080000000005 18.452200000000001 8.3891300000000015 6.392170000000001 9.3770850000000028 0.16724000000000003 7.4495600000000008 10.668335000000003 11.763715000000001 12.931285000000001 14.831635 5.7045700000000013
decision_type=2 2 2 2 2 2 2 2 2 2 2 2 2 2 2 2 2 2 2 2 2 2 2 2 2
left_child=1 3 5 9 8 12 13 24 19 18 17 -7 21 -4 -8 -10 -9 -6 -1 -3 -12 -2 -14 -13 -5
right_child=2 4 6 7 10 11 14 16 15 -11 20 23 22 -15 -16 -17 -18 -19 -20 -21 -22 -23 -24 -25 -26
leaf_value=10.197898541407824 0.44516266316922476 5.3185388629308052 -3.6245948498871536 7.8432657528169356 2.8865714816618695 -1.744680908374032 -5.1677830791952886 6.7791079314178226 4.2085081169574687 8.6443979641981752 1.6218384233958676 -2.5044020886763061 -0.46509513385671569 -4.5094017019963717 -5.6822757877899441 3.4469400644401067 6.1300302066091898 2.2158578914312814 9.5837890701994279 4.6894911480397257 1.0277992805268352 -0.060145699272678751 -1.0193984099258233 -3.0836738878660048 7.4029641646313351
leaf_weight=46 66 75 72 55 49 87 93 68 76 111 51 29 50 55 956 74 127 86 139 51 60 62 47 69 71
leaf_count=46 66 75 72 55 49 87 93 68 76 111 51 29 50 55 956 74 127 86 139 51 60 62 47 69 71
internal_value=-0.0946521 5.83549 -4.35344 8.03446 3.23633 -1.17732 -5.46075 6.84263 4.39484 9.32695 1.93653 -2.36318 -0.202288 -4.00778 -5.63666 3.8328 6.35638 2.4593 9.73649 5.06392 1.30074 0.200404 -0.733675 -2.91226 7.59516
internal_weight=2725 1139 1586 617 522 410 1176 321 276 296 246 185 225 127 1049 150 195 135 185 126 111 128 97 98 126
internal_count=2725 1139 1586 617 522 410 1176 321 276 296 246 185 225 127 1049 150 195 135 185 126 111 128 97 98 126
is_linear=0
shrinkage=0.0186753


Tree=10
num_leaves=26
num_cat=0
split_feature=2 3 2 3 2 2 2 3 2 7 2 2 3 7 2 7 7 7 7 7 7 2 2 7 7
split_gain=1.90023e+08 1.79748e+07 1.54014e+07 2.62432e+06 2.17036e+06 1.30896e+06 829928 324324 286579 269638 225762 197303 173473 152672 155270 131474 107953 101123 90694.4 87629.4 75686 64831.5 61945.7 58633.3 57722.4
threshold=11.155625000000002 1.4217500000000001 15.633170000000002 0.61337500000000011 9.0204900000000023 13.472800000000001 17.308800000000002 0.94364500000000018 7.8347700000000016 1.0000000180025095e-35 10.199965000000001 5.1593000000000009 4.5586600000000006 1.0000000180025095e-35 12.32859 1.0000000180025095e-35 1.0000000180025095e-35 1.0000000180025095e-35 1.0000000180025095e-35 1.0000000180025095e-35 1.0000000180025095e-35 6.436440000000001 18.452200000000001 1.0000000180025095e-35 1.0000000180025095e-35
decision_type=2 2 2 2 2 2 2 2 2 2 2 2 2 2 2 2 2 2 2 2 2 2 2 2 2
left_child=1 3 5 9 8 13 18 -5 17 11 23 -1 20 14 -2 -10 21 -3 -4 -12 -7 -9 24 -6 -8
right_child=2 4 6 7 10 12 22 16 15 -11 19 -13 -14 -15 -16 -17 -18 -19 -20 -21 -22 -23 -24 -25 -26
leaf_value=9.4002875941463255 0.056989135498298774 4.7823013913374322 -4.0941446968612665 7.4533172324933403 2.297453444625086 -1.9429710777225944 -5.2235663764308651 6.5241514133929481 3.5570522680448606 10.519992175242967 1.0937585910135452 8.3536261052656364 -2.8578692913012498 1.1188609377983429 -1.0066882889297175 5.2584691567606896 7.6155711528577443 6.4657726616507825 -2.3879793904364406 2.7836031779493879 -0.39789990861721747 5.7980949454847908 -5.5761572374887747 3.7201110217762765 -3.6498677112233593
leaf_weight=137 117 112 115 126 124 74 84 73 132 43 99 116 98 27 81 18 18 13.999999999999998 11.999999999999998 11.999999999999998 12.999999999999998 104 956 10.999999999999998 8.9999999999999982
leaf_count=137 117 112 115 126 124 74 84 73 132 43 99 116 98 27 81 18 18 14 12 12 13 104 956 11 9
internal_value=-0.0928844 5.72651 -4.27213 7.88441 3.17589 -1.15534 -5.35877 6.71484 4.31276 9.15277 1.90037 8.9204 -2.31905 -0.19851 -0.378152 3.76122 6.23767 4.96935 -3.93293 1.27644 -1.7121 6.09754 -5.5314 2.41337 -5.07127
internal_weight=2725 1139 1586 617 522 410 1176 321 276 296 246 253 185 225 198 150 195 126 127 111 87 177 1049 135 93
internal_count=2725 1139 1586 617 522 410 1176 321 276 296 246 253 185 225 198 150 195 126 127 111 87 177 1049 135 93
is_linear=0
shrinkage=0.0186753


Tree=11
num_leaves=26
num_cat=0
split_feature=2 3 2 3 2 2 2 3 2 3 2 3 2 2 2 2 2 2 3 2 2 2 2 2 2
split_gain=1.82992e+08 1.73097e+07 1.48315e+07 2.52722e+06 2.09005e+06 1.26052e+06 799219 312324 275975 222535 218522 167054 128618 67212.8 59786.9 59653.6 49904.2 40760.2 35512.1 33204.8 26614.8 22633 20460.1 18917.9 16706.4
threshold=11.155625000000002 1.4217500000000001 15.633170000000002 0.61337500000000011 9.0204900000000023 13.472800000000001 17.308800000000002 0.94364500000000018 7.8347700000000016 0.38223500000000005 10.045130000000002 4.5586600000000006 12.32859 16.693080000000005 8.3891300000000015 18.452200000000001 6.392170000000001 10.668335000000003 0.16724000000000003 7.4495600000000008 9.3770850000000028 11.763715000000001 12.931285000000001 14.831635 5.4194900000000006
decision_type=2 2 2 2 2 2 2 2 2 2 2 2 2 2 2 2 2 2 2 2 2 2 2 2 2
left_child=1 3 5 9 8 12 13 -5 19 18 20 -7 21 -4 -10 -8 -9 -12 -1 -3 -6 -2 -14 -13 -11
right_child=2 4 6 7 10 11 15 16 14 24 17 23 22 -15 -16 -17 -18 -19 -20 -21 -22 -23 -24 -25 -26
leaf_value=9.8282593427097122 0.43458293706232681 5.1265487348299681 -3.4839850092665441 7.314123931107563 2.7886734127246711 -1.6801243619947288 -4.9765651829244479 6.5294661525049316 4.0588846155241178 8.4827778519445296 1.6461990899233043 -2.4042597996596129 -0.44475422095979955 -4.3510448852930601 3.313132427826647 -5.4720203251202024 5.902565769781317 0.9850226092626041 9.2296309618094696 4.508903451243726 2.2141476459971572 -0.062325710845726578 -0.98747261839322442 -2.9727135284822537 7.9967547785325825
leaf_weight=46 66 75 72 126 49 87 93 68 76 74 71 29 50 55 74 956 127 60 139 51 66 62 47 69 37
leaf_count=46 66 75 72 126 49 87 93 68 76 74 71 29 50 55 74 956 127 60 139 51 66 62 47 69 37
internal_value=-0.0911496 5.61957 -4.19235 7.73717 3.11658 -1.13376 -5.2587 6.58944 4.23222 8.98184 1.86488 -2.27574 -0.194803 -3.85948 3.69098 -5.4281 6.12118 1.34337 9.37848 4.87655 2.45895 0.193893 -0.707721 -2.8045 8.32077
internal_weight=2725 1139 1586 617 522 410 1176 321 276 296 246 185 225 127 150 1049 195 131 185 126 115 128 97 98 111
internal_count=2725 1139 1586 617 522 410 1176 321 276 296 246 185 225 127 150 1049 195 131 185 126 115 128 97 98 111
is_linear=0
shrinkage=0.0186753


Tree=12
num_leaves=26
num_cat=0
split_feature=2 2 2 2 3 2 2 2 7 3 2 2 7 7 2 7 2 7 7 7 2 7 7 2 7
split_gain=1.76743e+08 1.75298e+07 1.39956e+07 2.29525e+06 2.11713e+06 1.19882e+06 747647 350164 273570 257696 233370 215512 162345 151834 135421 127202 108984 104645 96546.9 89928.2 74670.1 68099.5 65802.6 60675.9 65696.3
threshold=11.344175000000002 6.9215950000000008 15.633170000000002 5.592340000000001 2.2241600000000008 13.472800000000001 17.308800000000002 9.8690500000000014 1.0000000180025095e-35 0.94364500000000018 7.7202200000000003 5.1726600000000014 1.0000000180025095e-35 1.0000000180025095e-35 12.32859 1.0000000180025095e-35 14.645775000000002 1.0000000180025095e-35 1.0000000180025095e-35 1.0000000180025095e-35 16.693080000000005 1.0000000180025095e-35 1.0000000180025095e-35 18.452200000000001 1.0000000180025095e-35
decision_type=2 2 2 2 2 2 2 2 2 2 2 2 2 2 2 2 2 2 2 2 2 2 2 2 2
left_child=1 3 5 8 10 12 20 22 11 21 17 -1 14 16 -2 -9 -7 -3 -11 -12 -4 -5 -6 24 -8
right_child=2 4 6 9 7 13 23 15 -10 18 19 -13 -14 -15 -16 -17 -18 -19 -20 -21 -22 -23 -24 -25 -26
leaf_value=9.0480561872001708 0.033721100615630308 4.680232166750371 -3.4141118199368257 7.0099140494433758 2.4889141950969562 -1.974522552525783 -5.0442561489308169 1.1007770527900032 10.116548441784044 5.908162905716039 3.5833708656877108 7.975291533658841 1.1132525720157742 -0.56230428674815269 -0.97788961712243827 2.7366905010990186 -2.9408972737032486 6.4000721398904235 7.4271695300173821 5.164351936786189 -4.3280065507569487 8.6150247287698605 3.9927571299203266 -5.3717191106297735 -3.4419643304403453
leaf_weight=138 111 104 72 118 131 89 83 130 45 166 121 124 29 17 79 19 75 13.999999999999998 15.999999999999998 13.999999999999998 55 9.9999999999999982 10.999999999999998 953 9.9999999999999982
leaf_count=138 111 104 72 118 131 89 83 130 45 166 121 124 29 17 79 19 75 14 16 14 55 10 11 953 10
internal_value=-0.0549597 5.47203 -4.13432 7.62678 3.02813 -1.11771 -5.163 1.94181 8.77138 6.49326 4.2776 8.54034 -0.188246 -2.24231 -0.386896 1.30938 -2.41646 4.88428 6.0417 3.74732 -3.80989 7.13531 2.60541 -5.32729 -4.87197
internal_weight=2734 1161 1573 617 544 400 1173 291 307 310 253 262 219 181 190 149 164 118 182 135 127 128 142 1046 93
internal_count=2734 1161 1573 617 544 400 1173 291 307 310 253 262 219 181 190 149 164 118 182 135 127 128 142 1046 93
is_linear=0
shrinkage=0.0186753


Tree=13
num_leaves=26
num_cat=0
split_feature=2 2 2 0 0 2 0 0 2 0 7 0 7 7 2 7 7 2 7 7 2 7 7 2 2
split_gain=1.70203e+08 1.68811e+07 1.34777e+07 2.23083e+06 2.0473e+06 1.15447e+06 721676 282193 276809 271914 245588 182386 156338 146216 130410 121952 106721 104951 103015 90452.1 85159.2 63100.4 62121 48895.4 45121.1
threshold=11.344175000000002 6.9215950000000008 15.633170000000002 117.39847000000002 337.70706500000006 13.472800000000001 623.12010000000009 286.10802000000007 6.0735850000000005 383.43862500000006 1.0000000180025095e-35 48.875230000000009 1.0000000180025095e-35 1.0000000180025095e-35 12.32859 1.0000000180025095e-35 1.0000000180025095e-35 14.645775000000002 1.0000000180025095e-35 1.0000000180025095e-35 16.693080000000005 1.0000000180025095e-35 1.0000000180025095e-35 5.1861400000000009 18.452200000000001
decision_type=2 2 2 2 2 2 2 2 2 2 2 2 2 2 2 2 2 2 2 2 2 2 2 2 2
left_child=1 3 5 10 7 12 20 16 21 22 11 -1 14 17 -2 -11 -3 -7 -10 -9 -4 -5 -6 -12 -8
right_child=2 4 6 8 9 13 24 19 18 15 23 -13 -14 -15 -16 -17 -18 -19 -20 -21 -22 -23 -24 -25 -26
leaf_value=8.9667535093296475 0.033091349278070746 4.5524686252839031 -3.350352157864168 6.9267346451659257 2.3519407959972392 -1.9376476084087972 -4.8174034497411586 3.3962980343341536 5.7827833181965032 1.0845646578714139 10.557051369030548 7.9558362417367938 1.0924621909976837 -0.55180307438263287 -0.95962718748438425 2.6855818516103418 6.2290041069490449 -2.8859749168539923 7.3100395773291851 4.9750117689015445 -4.2827943310862056 8.5429025401604175 3.8893241275333619 9.3255513968092316 -5.271400694076906
leaf_weight=117 111 113 72 132 110 89 83 132 164 131 22 133 29 17 79 19 14.999999999999998 75 17 13.999999999999998 65 8.9999999999999982 9.9999999999999982 23 953
leaf_count=117 111 113 72 132 110 89 83 132 164 131 22 133 29 17 79 19 15 75 17 14 65 9 10 23 953
internal_value=-0.0539334 5.36983 -4.05711 7.48435 2.97157 -1.09684 -5.06658 4.10885 6.40951 1.81745 8.65756 8.42895 -0.184731 -2.20044 -0.379671 1.28736 4.74894 -2.37133 5.92623 3.54768 -3.79275 7.02989 2.48006 9.92762 -5.23503
internal_weight=2734 1161 1573 617 544 400 1173 274 322 270 295 250 219 181 190 150 128 164 181 146 137 141 120 45 1036
internal_count=2734 1161 1573 617 544 400 1173 274 322 270 295 250 219 181 190 150 128 164 181 146 137 141 120 45 1036
is_linear=0
shrinkage=0.0186753


Tree=14
num_leaves=26
num_cat=0
split_feature=2 2 2 2 3 2 2 2 2 7 2 2 7 7 2 7 2 7 7 7 7 7 2 7 2
split_gain=1.63905e+08 1.62565e+07 1.2979e+07 2.12981e+06 1.96617e+06 1.11175e+06 693648 272281 260033 253570 239767 200665 150553 140806 125585 115007 101068 97068.5 96126.9 86348.5 72606.9 72571 56176.8 63362.2 54768.7
threshold=11.344175000000002 6.9215950000000008 15.633170000000002 5.592340000000001 2.2775900000000004 13.472800000000001 17.308800000000002 7.7202200000000003 10.045130000000002 1.0000000180025095e-35 6.1669500000000008 5.1726600000000014 1.0000000180025095e-35 1.0000000180025095e-35 12.32859 1.0000000180025095e-35 14.645775000000002 1.0000000180025095e-35 1.0000000180025095e-35 1.0000000180025095e-35 1.0000000180025095e-35 1.0000000180025095e-35 18.452200000000001 1.0000000180025095e-35 16.457035000000001
decision_type=2 2 2 2 2 2 2 2 2 2 2 2 2 2 2 2 2 2 2 2 2 2 2 2 2
left_child=1 3 5 9 7 12 20 17 -6 11 21 -1 14 16 -2 -10 -7 -3 -9 -12 24 -5 23 -8 -4
right_child=2 4 6 10 8 13 22 18 15 -11 19 -13 -14 -15 -16 -17 -18 -19 -20 -21 -22 -23 -24 -25 -26
leaf_value=8.7146329343154409 0.032473351347486232 4.5078083061353951 -3.3896117181486471 6.6788736789335958 2.381289708362718 -1.9014614265262204 -4.8612891312857558 3.3613871981145169 1.012169699600836 9.7422166128387069 5.6185115950071998 7.6794799950344439 1.0720600845677648 -0.54149796063111166 -0.9417058143856355 2.6121317989877055 -2.8320784119922884 6.164219786420869 4.888852606824396 7.1059856400495383 -2.0517602513630755 8.2554852854073335 -5.1729550664403785 -3.2877177980602461 -4.1942929628546777
leaf_weight=138 111 104 59 137 130 89 83 141 121 45 147 124 29 17 79 18 75 13.999999999999998 15.999999999999998 14.999999999999998 8.9999999999999982 10.999999999999998 953 9.9999999999999982 59
leaf_count=138 111 104 59 137 130 89 83 141 121 45 147 124 29 17 79 18 75 14 16 15 9 11 953 10 59
internal_value=-0.0529261 5.26955 -3.98134 7.34457 2.91608 -1.07635 -4.97196 4.0265 1.78089 8.44715 6.25267 8.22471 -0.181281 -2.15934 -0.37258 1.21936 -2.32705 4.70433 3.51705 5.75624 -3.66863 6.79605 -5.1302 -4.69209 -3.79195
internal_weight=2734 1161 1573 617 544 400 1173 275 269 307 310 262 219 181 190 139 164 118 157 162 127 148 1046 93 118
internal_count=2734 1161 1573 617 544 400 1173 275 269 307 310 262 219 181 190 139 164 118 157 162 127 148 1046 93 118
is_linear=0
shrinkage=0.0186753


Tree=15
num_leaves=26
num_cat=0
split_feature=0 0 2 0 0 2 0 2 0 0 3 0 2 2 0 2 0 2 0 2 2 0 2 2 0
split_gain=1.60555e+08 1.51949e+07 1.31608e+07 2.24619e+06 1.88512e+06 1.17439e+06 682569 286108 238595 209958 186846 147660 110558 77589.4 60263.8 53824.2 39652.7 39274 37276.4 34438.8 32765.1 29212.3 22384.3 16054.8 15358.5
threshold=431.87586000000005 239.13249000000005 15.633170000000002 117.39847000000002 337.70706500000006 13.69308 623.12010000000009 6.2113850000000008 286.10802000000007 383.43862500000006 0.38223500000000005 484.21777500000002 14.466140000000001 16.693080000000005 314.14689000000004 5.875185000000001 458.08460500000007 10.668335000000003 24.547045000000004 7.3043300000000011 18.452200000000001 215.90377000000004 9.174570000000001 12.931285000000001 97.867495000000005
decision_type=2 2 2 2 2 2 2 2 2 2 2 2 2 2 2 2 2 2 2 2 2 2 2 2 2
left_child=1 3 5 10 8 11 13 15 19 22 18 16 -7 -4 -10 -5 -2 -11 -1 -3 -8 -9 -6 -13 -12
right_child=2 4 6 7 9 12 20 21 14 17 24 23 -14 -15 -16 -17 -18 -19 -20 -21 -22 -23 -24 -25 -26
leaf_value=9.0355170740435558 0.41904778168536694 4.8753211375021799 -3.1767128071589683 6.9465159573944062 2.6603165022811344 -1.626115248751574 -4.6757586309190176 5.7355357121110488 3.8160925120981832 1.5843327693717795 7.8909234122016185 -0.42410847165096444 -2.5988781426469765 -4.1093485997673342 3.0663713326024489 6.2963609428262615 -0.16913253463080874 0.96890957136850464 8.4930874757423407 4.2702784339557365 -5.0760715464249238 5.208602528353703 2.1311103265466942 -0.98472415890176113 7.4289200287483297
leaf_weight=71 82 61 70 93 50 67 77 103 79 76 78 25 104 56 71 85 78 69 117 71 965 57 63 62 37
leaf_count=71 82 61 70 93 50 67 77 103 79 76 78 25 104 56 71 85 78 69 117 71 965 57 63 62 37
internal_value=0.0101536 5.22333 -3.87179 7.16762 2.91538 -1.02804 -4.8895 6.12091 3.97081 1.76178 8.33523 -0.204397 -2.21774 -3.59122 3.46122 6.63605 0.13231 1.29148 8.69794 4.54988 -5.04649 5.54782 2.36527 -0.823628 7.74228
internal_weight=2767 1181 1586 641 540 418 1168 338 282 258 303 247 171 126 150 178 160 145 188 132 1042 160 113 87 115
internal_count=2767 1181 1586 641 540 418 1168 338 282 258 303 247 171 126 150 178 160 145 188 132 1042 160 113 87 115
is_linear=0
shrinkage=0.0186753


Tree=16
num_leaves=26
num_cat=0
split_feature=2 3 2 2 2 2 2 2 2 7 7 2 3 7 2 7 7 7 7 2 7 7 2 2 2
split_gain=1.54608e+08 1.4678e+07 1.26265e+07 2.16686e+06 1.80655e+06 1.12558e+06 657228 271910 259546 221747 207105 161423 161000 151214 166293 109591 103338 89760.7 82535.2 77298.2 64377.1 60370 46867.1 45402.3 44877
threshold=11.155625000000002 1.4217500000000001 15.633170000000002 5.5361800000000008 8.7531850000000002 13.69308 17.308800000000002 6.2113850000000008 9.8690500000000014 1.0000000180025095e-35 1.0000000180025095e-35 5.1593000000000009 1.8178600000000003 1.0000000180025095e-35 12.405490000000002 1.0000000180025095e-35 1.0000000180025095e-35 1.0000000180025095e-35 1.0000000180025095e-35 14.645775000000002 1.0000000180025095e-35 1.0000000180025095e-35 16.457035000000001 5.875185000000001 5.1861400000000009
decision_type=2 2 2 2 2 2 2 2 2 2 2 2 2 2 2 2 2 2 2 2 2 2 2 2 2
left_child=1 3 5 9 10 13 18 20 21 11 12 -1 -3 14 -2 19 -10 -9 22 -7 23 -6 -4 -5 -11
right_child=2 4 6 7 8 15 -8 17 16 24 -12 -13 -14 -15 -16 -17 -18 -19 -20 -21 -22 -23 -24 -25 -26
leaf_value=8.3880078258771462 0.022231459963214004 4.2705294714336093 -3.2619347317473633 6.7097952860753178 2.2879521610142128 -1.8964125533373282 -4.9459942935705765 5.2999221820847486 1.0727307811189102 10.028281449681208 5.4024964377138982 7.4591034634135704 3.2823246601223453 0.95254965713577033 -1.0542224742130282 -0.65165394587111269 2.5847078605526397 6.8169818413135026 -2.0032105358785546 -2.7281072505369512 7.8248542570104487 3.7963665166674985 -4.0519420742596077 6.0861345666955495 8.8213163252728801
leaf_weight=143 131 115 55 84 124 76 1051 146 127 21 31 120 115 34 81 14.999999999999998 18 14.999999999999998 11.999999999999998 80 11.999999999999998 9.9999999999999982 50 79 22
leaf_count=143 131 115 55 84 124 76 1051 146 127 21 31 120 115 34 81 15 18 15 12 80 12 10 50 79 22
internal_value=0.00996408 5.12191 -3.80222 7.03054 2.85275 -1.01257 -4.79819 5.99515 1.808 8.16745 3.96956 7.96417 3.77643 -0.20363 -0.389055 -2.17632 1.26042 5.44126 -3.47044 -2.32292 6.50472 2.40052 -3.63813 6.40753 9.41076
internal_weight=2767 1182 1585 642 540 417 1168 336 279 306 261 263 230 246 212 171 145 161 117 156 175 134 105 163 43
internal_count=2767 1182 1585 642 540 417 1168 336 279 306 261 263 230 246 212 171 145 161 117 156 175 134 105 163 43
is_linear=0
shrinkage=0.0186753


Tree=17
num_leaves=26
num_cat=0
split_feature=0 0 2 0 0 2 0 2 0 2 0 2 2 2 0 2 0 2 2 0 0 2 2 0 1
split_gain=1.48893e+08 1.40931e+07 1.22047e+07 2.08308e+06 1.74971e+06 1.09022e+06 633969 264942 221514 194313 169807 142895 105775 71945.2 56584.4 50012.7 38977 32887.4 31552.7 31323.2 28123.7 26924.6 18016.5 17373.4 14592.5
threshold=431.87586000000005 239.13249000000005 15.633170000000002 117.39847000000002 337.70706500000006 13.472800000000001 623.12010000000009 6.2113850000000008 286.10802000000007 10.199965000000001 48.875230000000009 14.466140000000001 12.154775000000003 16.693080000000005 314.14689000000004 5.875185000000001 359.75222000000002 7.3043300000000011 18.452200000000001 95.888140000000007 215.90377000000004 12.931285000000001 10.668335000000003 24.547045000000004 52.934090000000005
decision_type=2 2 2 2 2 2 2 2 2 2 2 2 2 2 2 2 2 2 2 2 2 2 2 2 2
left_child=1 3 5 10 8 12 13 15 17 16 23 -7 -2 -4 -10 -5 -6 -3 -8 -12 -9 -14 -11 24 -1
right_child=2 4 6 7 9 11 18 20 14 22 19 -13 21 -15 -16 -17 -18 -19 -20 -21 -22 -23 -24 -25 -26
leaf_value=8.6181300025842322 0.28667133945804602 4.7001710913358909 -3.0582266494541757 6.689534314997224 2.5234224479115124 -1.4718551502277692 -4.4960691409660321 5.5272442303565148 3.677045452890475 1.4107043985152212 7.7780265196208749 -2.5040968894444235 -0.29630954566261852 -3.9563000421467995 2.9505717959326523 6.0628218084571692 1.8984182117784127 4.108913756033223 -4.8889060659281105 7.2021200549621538 5.010221817313699 -0.88116477793086945 0.9270981971344554 8.2920608376863463 9.5162312572477372
leaf_weight=64 112 61 70 93 58 85 77 103 79 44 116 104 73 56 71 85 87 71 965 46 57 44 69 70 6.9999999999999991
leaf_count=64 112 61 70 93 58 85 77 103 79 44 116 104 73 56 71 85 87 71 965 46 57 44 69 70 7
internal_value=0.00977795 5.03006 -3.72853 6.90253 2.80737 -0.99002 -4.70858 5.89454 3.82419 1.69598 8.02695 -2.03986 -0.123557 -3.45737 3.33318 6.39026 2.14842 4.38215 -4.85988 7.6145 5.34306 -0.516255 1.11541 8.50084 8.70668
internal_weight=2767 1181 1586 641 540 418 1168 338 282 258 303 189 229 126 150 178 145 132 1042 162 160 117 113 141 71
internal_count=2767 1181 1586 641 540 418 1168 338 282 258 303 189 229 126 150 178 145 132 1042 162 160 117 113 141 71
is_linear=0
shrinkage=0.0186753


Tree=18
num_leaves=26
num_cat=0
split_feature=2 2 2 0 0 2 2 3 7 2 7 7 2 0 2 7 7 2 7 7 2 7 2 2 7
split_gain=1.41811e+08 1.2991e+07 1.25852e+07 1.70145e+06 1.66484e+06 920966 913209 261289 209627 183625 178354 156225 146393 143152 121417 116583 103995 97919.2 86632.6 77844 71057.3 57873.4 53875 47629.6 45656.5
threshold=10.855085000000001 15.235200000000001 6.8212600000000014 317.65279000000004 117.39847000000002 17.308800000000002 12.931285000000001 2.4900200000000008 1.0000000180025095e-35 5.9555800000000003 1.0000000180025095e-35 1.0000000180025095e-35 7.4495600000000008 48.875230000000009 14.054665000000002 1.0000000180025095e-35 1.0000000180025095e-35 11.924630000000002 1.0000000180025095e-35 1.0000000180025095e-35 16.189480000000003 1.0000000180025095e-35 10.199965000000001 5.1861400000000009 1.0000000180025095e-35
decision_type=2 2 2 2 2 2 2 2 2 2 2 2 2 2 2 2 2 2 2 2 2 2 2 2 2
left_child=2 6 4 10 8 18 15 21 13 24 12 14 -4 -1 -8 17 22 -2 20 -11 -3 -5 -9 -10 -6
right_child=1 5 3 7 9 -7 11 16 23 19 -12 -13 -14 -15 -16 -17 -18 -19 -20 -21 -22 -23 -24 -25 -26
leaf_value=8.1319056962890031 0.35613755926054314 -2.9605824083301928 4.4335914072672749 2.5906242370006933 6.3720822968143702 -4.7607981791809744 -1.3262215648417104 1.7300037843645728 9.7304463614016736 5.4096089996627903 5.389221425204239 -0.11817994719454619 3.4656318551987568 7.2567720825408619 -2.3073153920204104 1.3415413871834219 2.7743593428200595 -0.48460704742196181 -1.8232572221742753 6.8147825721133248 -3.7936892453094342 4.1504740872863648 1.0369654112961337 8.4964509779026383 7.7570382318819542
leaf_weight=122 103 74 102 106 107 1030 87 83 20 165 33 21 117 140 89 24 22 91 13.999999999999998 14.999999999999998 69 8.9999999999999982 74 24 8.9999999999999982
leaf_count=122 103 74 102 106 107 1030 87 83 20 165 33 21 117 140 89 24 22 91 14 15 69 9 74 24 9
internal_value=0.0267054 -3.56331 5.03647 2.98328 6.89867 -4.5577 -0.719119 2.0181 7.86459 5.90011 4.10932 -1.64068 3.91646 7.66428 -1.82234 0.113669 1.57185 -0.0382323 -3.22531 5.52671 -3.36257 2.7127 1.40335 9.05736 6.47954
internal_weight=2750 1602 1148 546 602 1187 415 294 306 296 252 197 219 262 176 218 179 194 157 180 143 115 157 44 116
internal_count=2750 1602 1148 546 602 1187 415 294 306 296 252 197 219 262 176 218 179 194 157 180 143 115 157 44 116
is_linear=0
shrinkage=0.0186753


Tree=19
num_leaves=26
num_cat=0
split_feature=3 3 3 3 3 3 3 3 3 3 3 3 3 3 3 3 3 3 3 3 3 3 3 3 3
split_gain=1.36474e+08 1.32641e+07 1.12604e+07 1.88826e+06 1.59768e+06 983326 571544 244160 208461 182072 155572 153771 95430.7 56887.3 43073.4 42186.8 41572.3 38540.9 29971.8 28303.1 20610.5 18911.7 16722.4 15049.9 12622.1
threshold=3.2335850000000002 1.4217500000000001 5.022590000000001 0.61337500000000011 2.2775900000000004 4.1366500000000004 5.7022150000000007 0.94364500000000018 1.9174550000000001 2.8550500000000003 0.35892500000000005 4.5586600000000006 3.7662900000000001 5.3929950000000009 2.4900200000000008 1.6999550000000003 1.0639650000000003 6.081570000000001 3.5030700000000006 0.16724000000000003 3.0141850000000003 2.1031650000000002 0.76477500000000009 4.3058100000000001 4.7055550000000013
decision_type=2 2 2 2 2 2 2 2 2 2 2 2 2 2 2 2 2 2 2 2 2 2 2 2 2
left_child=1 3 5 10 8 12 13 22 15 14 19 23 18 -4 -6 -3 -9 -8 -2 -1 -11 -10 -5 -7 -13
right_child=2 4 6 7 9 11 17 16 21 20 -12 24 -14 -15 -16 -17 -18 -19 -20 -21 -22 -23 -24 -25 -26
leaf_value=8.4659049734121847 0.44534400179956801 4.3927714946471079 -3.0073850953828307 6.4989967098628219 2.488657842846401 -1.1377223127860636 -4.2708230130844385 5.6875889697319746 3.3174207806905578 1.4468361379087626 7.2207731379418076 -2.0843549617923522 -0.63923991037588757 -3.7970948634714516 1.8289763418034841 3.7696742847575182 5.0923617747649814 -4.7079281244243676 -0.090262281823538709 7.9352598846228197 0.92213943019678002 2.8482675560863839 6.0863297053717691 -1.6070138749502954 -2.5626906400108402
leaf_weight=48 70 89 72 69 56 44 76 58 62 39 126 26 79 57 90 66 139 947 76 130 79 58 68 52 74
leaf_count=48 70 89 72 69 56 44 76 58 62 39 126 26 79 57 90 66 139 947 76 130 79 58 68 52 74
internal_value=0.0262066 4.83574 -3.57254 6.65797 2.67882 -0.958771 -4.52774 5.68868 3.67504 1.64109 7.72291 -1.9258 -0.116381 -3.35633 2.082 4.12745 5.26761 -4.67546 0.166535 8.07836 1.09556 3.09066 6.29417 -1.39192 -2.43832
internal_weight=2750 1177 1573 638 539 421 1152 334 275 264 304 196 225 129 146 155 197 1023 146 178 118 120 137 96 100
internal_count=2750 1177 1573 638 539 421 1152 334 275 264 304 196 225 129 146 155 197 1023 146 178 118 120 137 96 100
is_linear=0
shrinkage=0.0186753


Tree=20
num_leaves=26
num_cat=0
split_feature=0 0 0 0 0 0 0 0 7 0 0 7 7 0 0 7 0 7 7 7 7 7 7 0 0
split_gain=1.3151e+08 1.27544e+07 1.0811e+07 1.83201e+06 1.51429e+06 982939 522255 229435 201815 194917 179679 139916 137130 133268 117710 98407 91076.8 86993.4 83415.6 82886.1 78712 69317.4 60303.6 46352.4 46260.8
threshold=431.87586000000005 239.13249000000005 577.95843500000012 117.39847000000002 337.70706500000006 509.26214500000003 628.18693000000007 187.05199000000002 1.0000000180025095e-35 286.10802000000007 402.08598500000005 1.0000000180025095e-35 1.0000000180025095e-35 48.875230000000009 477.74772500000006 1.0000000180025095e-35 546.76300500000013 1.0000000180025095e-35 1.0000000180025095e-35 1.0000000180025095e-35 1.0000000180025095e-35 1.0000000180025095e-35 1.0000000180025095e-35 359.75222000000002 147.21274000000003
decision_type=2 2 2 2 2 2 2 2 2 2 2 2 2 2 2 2 2 2 2 2 2 2 2 2 2
left_child=1 3 5 8 9 12 19 21 13 18 17 16 14 -1 -2 -11 -7 23 -3 -4 -9 24 -12 -6 -5
right_child=2 4 6 7 10 11 -8 20 -10 15 22 -13 -14 -15 -16 -17 -18 -19 -20 -21 -22 -23 -24 -25 -26
leaf_value=7.8285966727555518 0.012002831537279523 3.9689760300410089 -3.5001622742181131 6.260230787528025 2.298670283808474 -1.7161706214201291 -4.5942255499823412 4.8838819864373066 8.7442783785372029 2.9769274034775561 0.81309128947357268 -0.34446161033753858 1.0688453096170447 6.9842156900378392 -0.91449029478399602 4.4858850896478355 -2.5721163007371808 3.2165534944269134 5.4543786969884307 -1.9296138441071424 6.3104231553873591 7.2764722779209521 2.2816140339652549 1.6044462644431112 5.6388630702363205
leaf_weight=122 132 109 119 74 51 92 1015 134 44 133 86 17 28 140 75 17 82 18 14.999999999999998 12.999999999999998 14.999999999999998 13.999999999999998 10.999999999999998 98 96
leaf_count=122 132 109 119 74 51 92 1015 134 44 133 86 17 28 140 75 17 82 18 15 13 15 14 11 98 96
internal_value=0.0257172 4.74698 -3.50698 6.5308 2.62828 -0.966507 -4.45052 5.57224 7.57395 3.60082 1.6189 -1.96156 -0.157765 7.3774 -0.323683 3.14794 -2.11955 1.99021 4.14866 -3.34549 5.02749 6.01336 0.979625 1.84207 5.90934
internal_weight=2750 1177 1573 639 538 426 1147 333 306 274 264 191 235 262 207 150 174 167 124 132 149 184 97 149 170
internal_count=2750 1177 1573 639 538 426 1147 333 306 274 264 191 235 262 207 150 174 167 124 132 149 184 97 149 170
is_linear=0
shrinkage=0.0186753


Tree=21
num_leaves=26
num_cat=0
split_feature=2 2 2 0 0 2 0 2 2 7 7 2 7 0 0 7 7 7 7 2 7 2 2 2 7
split_gain=1.27878e+08 1.22295e+07 1.07425e+07 1.63524e+06 1.5447e+06 880867 507464 247369 205338 196466 182507 143402 137952 139066 137471 89625.1 84734 82009.2 62741.3 57865.4 56977.7 48595.7 42907 42804.8 42554.9
threshold=11.040060000000002 6.9215950000000008 15.633170000000002 117.39847000000002 332.10803000000004 13.69308 623.12010000000009 9.6752650000000013 5.9555800000000003 1.0000000180025095e-35 1.0000000180025095e-35 7.4495600000000008 1.0000000180025095e-35 477.74772500000006 48.875230000000009 1.0000000180025095e-35 1.0000000180025095e-35 1.0000000180025095e-35 1.0000000180025095e-35 14.645775000000002 1.0000000180025095e-35 6.436440000000001 16.457035000000001 10.536555000000002 1.0000000180025095e-35
decision_type=2 2 2 2 2 2 2 2 2 2 2 2 2 2 2 2 2 2 2 2 2 2 2 2 2
left_child=1 3 5 9 10 12 18 20 24 14 11 -3 13 -2 -1 19 23 21 22 -7 -6 -10 -4 -9 -5
right_child=2 4 6 8 7 15 -8 16 17 -11 -12 -13 -14 -15 -16 -17 -18 -19 -20 -21 -22 -23 -24 -25 -26
leaf_value=7.6873320720368747 0.020148995691662171 4.1571185901096603 -2.988225099410033 6.0265761860563103 2.2074787024928875 -1.7343707796101562 -4.5029729357602779 1.3801567577866303 5.3394090599930566 8.6143789985595518 4.9841835529710661 3.1693670764962301 0.93547074559291088 -0.93542106564644323 6.8461847494983799 -0.55522773263533864 2.5182738953432735 6.3535986083836455 -1.8352458349222889 -2.4633845784309267 3.6118104093704559 4.7222635712478054 -3.7030290781799504 0.73125549550665081 7.3600491215497641
leaf_weight=128 134 79 54 115 120 83 1021 78 89 42 34 146 33 88 144 14.999999999999998 15.999999999999998 18 9.9999999999999982 70 10.999999999999998 89 64 65 8.9999999999999982
leaf_count=128 134 79 54 115 120 83 1021 78 89 42 34 146 33 88 144 15 16 18 10 70 11 89 64 65 9
internal_value=0.0630776 4.70117 -3.4273 6.46811 2.66067 -0.882895 -4.36401 1.7245 5.52859 7.42558 3.70889 3.51618 -0.191163 -0.358636 7.24202 -1.93285 1.22941 5.15231 -3.25555 -2.06791 2.3254 5.03084 -3.37592 1.0852 6.12336
internal_weight=2755 1183 1572 634 549 423 1149 290 320 314 259 225 255 222 272 168 159 196 128 153 131 178 118 143 124
internal_count=2755 1183 1572 634 549 423 1149 290 320 314 259 225 255 222 272 168 159 196 128 153 131 178 118 143 124
is_linear=0
shrinkage=0.0186753


Tree=22
num_leaves=26
num_cat=0
split_feature=2 3 2 3 2 2 2 2 3 2 3 2 2 3 2 2 3 2 2 3 3 2 2 2 2
split_gain=1.23146e+08 1.17825e+07 1.0345e+07 1.72289e+06 1.32454e+06 848273 487136 236814 200523 153419 151877 114936 73358.5 54518.5 42826.3 42671.2 34923.2 34756.1 30457.9 29473 25040.9 21158.3 20403 18778.3 16295.1
threshold=11.040060000000002 1.4489950000000003 15.633170000000002 0.61337500000000011 9.0204900000000023 13.69308 17.477795000000004 6.2497650000000009 1.8635850000000003 10.153035000000001 0.38223500000000005 12.579465000000001 14.466140000000001 5.3929950000000009 8.3891300000000015 5.9035150000000014 6.0451250000000014 11.763715000000001 7.4495600000000008 0.16724000000000003 2.4900200000000008 5.4194900000000006 6.789645000000001 10.668335000000003 12.931285000000001
decision_type=2 2 2 2 2 2 2 2 2 2 2 2 2 2 2 2 2 2 2 2 2 2 2 2 2
left_child=1 3 5 10 8 11 13 15 18 20 19 17 -7 -4 -10 -5 -8 -2 -3 -1 -6 -12 -9 -11 -13
right_child=2 4 6 7 9 12 16 22 14 23 21 24 -14 -15 -16 -17 -18 -19 -20 -21 -22 -23 -24 -25 -26
leaf_value=7.977526070951483 0.41794755485065777 4.2141364144939244 -2.828721400311299 6.0691346019670869 2.3100152108292158 -1.4569170324744329 -4.0129600095477871 4.9796161006557984 3.290154116089949 1.3033774380487262 6.936099297157198 -0.3683410895958486 -2.2430003812535184 -3.600412091176636 2.6570103823768183 5.5048542575477963 -4.4480665226567337 -0.13997394253061185 3.643261769280453 7.4619369647018949 1.7752522152306136 6.4120839408578796 4.5293487671178649 0.83793281451363766 -0.86641414118523929
leaf_weight=53 75 70 67 101 52 74 69 97 69 59 78 36 94 61 81 87 952 81 61 143 74 41 55 62 63
leaf_count=53 75 70 67 101 52 74 69 97 69 59 78 36 94 61 81 87 952 81 61 143 74 41 55 62 63
internal_value=0.0618996 4.61338 -3.36329 6.28675 2.53751 -0.866407 -4.28251 5.36483 3.41447 1.53984 7.28183 -0.187593 -1.89675 -3.19648 2.94826 5.808 -4.41866 0.128258 3.94831 7.60136 1.99595 6.75556 4.81669 1.06489 -0.685297
internal_weight=2755 1183 1572 655 528 423 1149 340 281 247 315 255 168 128 150 188 1021 156 131 196 126 119 152 121 99
internal_count=2755 1183 1572 655 528 423 1149 340 281 247 315 255 168 128 150 188 1021 156 131 196 126 119 152 121 99
is_linear=0
shrinkage=0.0186753


Tree=23
num_leaves=26
num_cat=0
split_feature=2 3 2 0 2 2 0 2 7 7 3 2 7 0 0 7 7 7 7 7 7 2 2 3 2
split_gain=1.1859e+08 1.13465e+07 9.96226e+06 1.66665e+06 1.27553e+06 816897 470686 228123 202221 189135 159101 147742 142563 145222 128231 75867.4 72393.4 63818.2 62842.7 60194.2 47921.4 45119.2 42434.4 40010.5 37407.6
threshold=11.040060000000002 1.4489950000000003 15.633170000000002 117.39847000000002 9.0204900000000023 13.745735000000002 623.12010000000009 6.2497650000000009 1.0000000180025095e-35 1.0000000180025095e-35 1.9483200000000001 10.153035000000001 1.0000000180025095e-35 477.74772500000006 48.875230000000009 1.0000000180025095e-35 1.0000000180025095e-35 1.0000000180025095e-35 1.0000000180025095e-35 1.0000000180025095e-35 1.0000000180025095e-35 14.645775000000002 5.9035150000000014 5.3929950000000009 7.4495600000000008
decision_type=2 2 2 2 2 2 2 2 2 2 2 2 2 2 2 2 2 2 2 2 2 2 2 2 2
left_child=1 3 5 9 8 12 19 18 10 14 24 20 13 -2 -1 21 -9 -13 22 23 -6 -7 -5 -4 -3
right_child=2 4 6 7 11 15 -8 16 -10 -11 -12 17 -14 -15 -16 -17 -18 -19 -20 -21 -22 -23 -24 -25 -26
leaf_value=7.4010292633648627 0.017021562492282555 3.9258002792560012 -2.9147866551672728 5.8660276984624087 1.846032311369086 -1.7162362464133449 -4.3363659851141207 4.5918775514161885 4.6576598959894788 8.3174540512488484 2.6136902370296569 0.90269126678667022 0.91542745492733191 -0.93459104876099253 6.5886425132229602 -0.59488120759337437 5.9584543284638709 2.3376180407325871 6.9025216375116685 -1.7438211473910807 3.1362802930522156 -2.3754912640264298 5.2816446029186128 -3.60265757079909 3.3072618648084076
leaf_weight=128 134 60 60 96 115 75 1021 137 36 42 106 109 34 96 144 13.999999999999998 14.999999999999998 11.999999999999998 13.999999999999998 9.9999999999999982 10.999999999999998 70 79 58 79
leaf_count=128 134 60 60 96 115 75 1021 137 36 42 106 109 34 96 144 14 15 12 14 10 11 70 79 58 79
internal_value=0.0607436 4.52722 -3.30048 6.16934 2.49013 -0.850226 -4.20253 5.26536 3.35071 7.15105 3.15866 1.51108 -0.213316 -0.380173 6.97094 -1.90774 4.72674 1.045 5.69854 -3.135 1.95867 -2.0345 5.60222 -3.25289 3.57426
internal_weight=2755 1183 1572 655 528 423 1149 341 281 314 245 247 264 230 272 159 152 121 189 128 126 145 175 118 139
internal_count=2755 1183 1572 655 528 423 1149 341 281 314 245 247 264 230 272 159 152 121 189 128 126 145 175 118 139
is_linear=0
shrinkage=0.0186753


Tree=24
num_leaves=26
num_cat=0
split_feature=3 3 3 3 3 3 3 3 3 3 3 3 3 3 3 3 3 3 3 3 3 4 3 1 3
split_gain=1.1425e+08 1.13139e+07 8.79334e+06 1.61459e+06 1.33198e+06 947720 309044 283155 203203 140208 125631 104637 69154.4 59750.5 45803.5 35145.6 24453.8 23607.5 22626.3 17207.4 13654.7 12559.1 11846.7 11794.1 10024
threshold=3.2967200000000005 1.4489950000000003 5.1490500000000008 0.61337500000000011 2.427235 4.3058100000000001 5.8867900000000004 2.0324750000000003 1.0094350000000001 0.38223500000000005 3.8916700000000004 2.9514150000000003 4.6317150000000007 1.6999550000000003 5.3929950000000009 3.5030700000000006 0.76477500000000009 1.2286600000000003 0.18121500000000004 6.081570000000001 4.0388850000000014 68.631200000000021 2.7271950000000005 54.95000000000001 2.2241600000000008
decision_type=2 2 2 2 2 2 2 2 2 2 2 2 2 2 2 2 2 2 2 2 2 2 2 2 2
left_child=1 3 5 9 7 10 14 13 16 18 15 22 -7 -3 -4 -2 -5 -10 -1 21 -12 -8 -6 -16 -9
right_child=2 4 6 8 11 12 19 24 17 -11 20 -13 -14 -15 23 -17 -18 -19 -20 -21 -22 -23 -24 -25 -26
leaf_value=7.6393702752950619 0.42186413891833469 4.0061785811935149 -2.8071704653843628 5.8925493029679821 1.8128935256976497 -1.5896643758275355 -3.5700309663724537 2.6697493155460252 4.8999867701261888 6.5224613153215838 -0.57072810394917783 0.82495104524281537 -2.3520664645548992 3.3354705411786316 -3.0089243402999966 -0.16025440834897861 5.4325806872465972 4.4594156318653759 7.2017589049111947 -4.2869070837726131 -1.0245982540508287 -4.1702889602207271 1.4422900350706487 -3.6413133583280901 2.3453985029164657
leaf_weight=61 57 79 44 68 65 67 20 61 96 118 43 100 109 112 11.999999999999998 99 99 76 127 962 50 31 56 72 73
leaf_count=61 57 79 44 68 65 67 20 61 96 118 43 100 109 112 12 99 99 76 127 962 50 31 56 72 73
internal_value=0.00957032 4.36888 -3.30585 6.04358 2.39053 -1.01288 -4.15993 3.15117 5.15585 7.02704 -0.271446 1.27195 -2.06183 3.61288 -3.29529 0.0524428 5.61987 4.70532 7.34375 -4.26918 -0.814744 -3.93489 1.64137 -3.55097 2.49305
internal_weight=2757 1191 1566 645 546 425 1141 325 339 306 249 221 176 191 128 156 167 172 188 1013 93 51 121 84 134
internal_count=2757 1191 1566 645 546 425 1141 325 339 306 249 221 176 191 128 156 167 172 188 1013 93 51 121 84 134
is_linear=0
shrinkage=0.0186753


Tree=25
num_leaves=26
num_cat=0
split_feature=2 3 2 2 2 2 2 3 2 2 3 2 2 2 2 3 2 2 2 3 2 3 2 2 1
split_gain=1.10083e+08 1.09109e+07 8.43248e+06 1.55556e+06 1.28971e+06 747891 461940 190340 187578 169652 150087 103873 52739.3 50055.4 36831.2 35199.8 33896.7 27851.9 24411.2 23657 22364.5 21789.1 17095.9 16960.7 14240.9
threshold=11.344175000000002 1.4489950000000003 15.633170000000002 5.592340000000001 9.0204900000000023 13.745735000000002 17.477795000000004 1.9174550000000001 6.2497650000000009 10.199965000000001 0.38223500000000005 12.660670000000001 14.831635 16.693080000000005 5.9555800000000003 5.9924350000000013 7.4495600000000008 11.763715000000001 8.3891300000000015 2.4900200000000008 5.4194900000000006 0.18121500000000004 10.668335000000003 6.789645000000001 54.453025000000004
decision_type=2 2 2 2 2 2 2 2 2 2 2 2 2 2 2 2 2 2 2 2 2 2 2 2 2
left_child=1 3 5 10 7 11 13 16 14 19 21 17 -7 -4 -5 -8 -3 -2 -9 -6 -12 -1 -11 -10 -13
right_child=2 4 6 8 9 12 15 18 23 22 20 24 -14 -15 -16 -17 -18 -19 -20 -21 -22 -23 -24 -25 -26
leaf_value=7.4967023561312072 0.39427913496930911 3.9685099929773608 -2.6638666728254554 5.6552559823642889 2.179115920806709 -1.580846580030457 -3.7481596195979785 3.028579898002222 4.7018633585213152 1.2044310291968539 6.5687908612015606 -0.31106660638595029 -2.269645305869425 -3.4046403237878597 5.1058074959957391 -4.203607138536853 3.4078984103385612 -0.13331037876837035 2.5062253549294424 1.6703433647725126 6.0564416660084905 7.0672636192547245 0.75142596336744094 4.2905601655173893 -0.85486478413790479
leaf_weight=61 57 71 72 111 51 84 63 50 96 45 78 22 72 57 69 977 80 90 83 85 48 127 82 55 71
leaf_count=61 57 71 72 111 51 84 63 50 96 45 78 22 72 57 69 977 80 90 83 85 48 127 82 55 71
internal_value=0.00939161 4.2853 -3.24741 5.93071 2.3451 -0.892092 -4.04527 3.21775 5.03744 1.40278 6.87234 -0.237762 -1.89875 -2.99119 5.44463 -4.17602 3.6715 0.0712651 2.7026 1.86113 6.37361 7.2066 0.91194 4.55205 -0.726224
internal_weight=2757 1192 1565 645 547 396 1169 284 331 263 314 240 156 129 180 1040 151 147 133 136 126 188 127 151 93
internal_count=2757 1192 1565 645 547 396 1169 284 331 263 314 240 156 129 180 1040 151 147 133 136 126 188 127 151 93
is_linear=0
shrinkage=0.0186753


Tree=26
num_leaves=26
num_cat=0
split_feature=0 3 0 0 0 0 0 0 0 3 0 3 0 0 0 3 0 0 0 0 0 0 0 0 0
split_gain=1.05986e+08 1.02136e+07 8.4512e+06 1.50473e+06 1.16974e+06 803076 401691 192967 177064 146722 129628 101040 77087.4 42839.8 41301.2 33365.9 32775.9 31267.3 27399.2 23700.6 21497.7 18180.4 17718.4 15561.2 10329.6
threshold=431.87586000000005 1.4489950000000003 577.95843500000012 117.39847000000002 336.08094500000004 509.26214500000003 623.12010000000009 189.80456000000001 383.43862500000006 1.9174550000000001 53.544670000000004 4.5586600000000006 458.08460500000007 602.00537500000007 161.05902500000002 5.9924350000000013 407.71849000000003 265.74850000000009 484.21777500000002 95.888140000000007 353.87503000000009 314.14689000000004 24.547045000000004 215.90377000000004 556.22721000000013
decision_type=2 2 2 2 2 2 2 2 2 2 2 2 2 2 2 2 2 2 2 2 2 2 2 2 2
left_child=1 3 5 10 9 12 13 14 20 17 22 -7 -2 -4 -5 -8 -10 -3 -14 -12 -6 -11 -1 -9 -13
right_child=2 4 6 7 8 11 15 23 16 21 19 24 18 -15 -16 -17 -18 -19 -20 -21 -22 -23 -24 -25 -26
leaf_value=7.3706917526940892 0.36902591635313259 3.8920114031127233 -2.6351794497151353 5.5641427733908655 2.2389800500670107 -1.2760710325394755 -3.6816792647072529 4.6245412688085334 1.3470976491569446 2.9806602364940873 6.5432796796694719 -1.8811729850685541 -0.13159589493670029 -3.3399283466653999 5.0154135795637149 -4.125103225298596 0.78644982915913675 3.3531079933629711 -0.64208764996096868 6.0356588305945253 1.7528935012626785 2.5010251306093521 6.9671120011155878 4.232568787199944 -2.2722868347150089
leaf_weight=73 76 70 65 119 62 83 63 76 66 49 106 35 81 56 80 977 81 81 67 46 65 63 79 66 72
leaf_count=73 76 70 65 119 62 83 63 76 66 49 106 35 81 56 80 977 81 81 67 46 65 63 79 66 72
internal_value=0.00921626 4.23595 -3.16285 5.81996 2.33338 -0.871963 -3.97975 4.96827 1.47944 3.22304 6.7753 -1.76505 -0.114434 -2.96134 5.34355 -4.09824 1.03817 3.60293 -0.362697 6.38966 1.9902 2.71087 7.16094 4.44236 -2.14435
internal_weight=2757 1182 1575 645 537 414 1161 341 274 263 304 190 224 121 199 1040 147 151 148 152 127 112 152 142 107
internal_count=2757 1182 1575 645 537 414 1161 341 274 263 304 190 224 121 199 1040 147 151 148 152 127 112 152 142 107
is_linear=0
shrinkage=0.0186753


Tree=27
num_leaves=26
num_cat=0
split_feature=0 3 0 0 0 0 0 0 7 7 7 0 0 7 0 3 7 7 0 7 7 7 0 0 3
split_gain=1.00069e+08 9.19241e+06 8.71048e+06 1.37496e+06 1.13244e+06 837214 358825 191629 171998 155095 147672 141845 111137 101855 101210 93819.2 81603.9 78774.1 73676.2 62893.1 47657.8 45259.5 44424.6 31749.2 29042.3
threshold=425.67769000000004 1.4217500000000001 577.95843500000012 117.39847000000002 332.10803000000004 505.41109000000006 623.12010000000009 164.78675000000004 1.0000000180025095e-35 1.0000000180025095e-35 1.0000000180025095e-35 383.43862500000006 48.875230000000009 1.0000000180025095e-35 458.08460500000007 1.6503800000000004 1.0000000180025095e-35 1.0000000180025095e-35 532.07330000000013 1.0000000180025095e-35 1.0000000180025095e-35 1.0000000180025095e-35 210.10675000000003 71.666965000000019 6.081570000000001
decision_type=2 2 2 2 2 2 2 2 2 2 2 2 2 2 2 2 2 2 2 2 2 2 2 2 2
left_child=1 3 5 8 9 13 19 20 12 15 18 21 -1 14 -2 -3 22 -13 -7 -4 -5 -6 -9 -10 -8
right_child=2 4 6 7 11 10 24 16 23 -11 -12 17 -14 -15 -16 -17 -18 -19 -20 -21 -22 -23 -24 -25 -26
leaf_value=6.8599952404116129 0.29133454848979651 3.6504511744285857 -3.0881441762273409 5.3472999791563112 1.8617332571966001 -1.3260363182007606 -3.6749830573419646 4.6253204901547145 8.2497912907959972 4.4753638511715925 -0.18592822414686255 0.93214099135964312 6.0876155045222085 1.1205769874235103 -0.54049445165808152 2.8160256378040782 5.722015639246699 2.328546782177582 -2.1095297640331157 -1.6082952244546771 6.6919042244629887 3.2311571943373827 4.0213166698008402 7.2228612410665045 -4.0522232691587492
leaf_weight=122 93 71 112 114 130 64 77 116 21 33 21 118 139 24 113 139 18 15.999999999999998 121 10.999999999999998 9.9999999999999982 8.9999999999999982 67 21 941
leaf_count=122 93 71 112 114 130 64 77 116 21 33 21 118 139 24 113 139 18 16 121 11 10 9 67 21 941
internal_value=-0.000236184 4.20468 -3.0506 5.72213 2.35785 -0.805302 -3.90857 4.87838 6.62714 3.28517 -1.67002 1.53244 6.44865 -0.030817 -0.16496 3.09814 4.5222 1.09888 -1.83848 -2.9558 5.45574 1.9504 4.40418 7.73633 -4.02369
internal_weight=2721 1144 1577 628 516 436 1141 325 303 243 206 273 261 230 206 210 201 134 185 123 124 139 183 42 1018
internal_count=2721 1144 1577 628 516 436 1141 325 303 243 206 273 261 230 206 210 201 134 185 123 124 139 183 42 1018
is_linear=0
shrinkage=0.0186753


Tree=28
num_leaves=26
num_cat=0
split_feature=2 2 2 0 2 2 0 2 2 7 7 7 2 2 7 2 7 2 7 7 7 7 0 2 2
split_gain=9.63877e+07 8.64535e+06 8.63432e+06 1.35231e+06 1.03212e+06 795417 390634 207136 180105 154609 151331 150665 89910.1 87781.1 86111.2 87633.9 80858.5 68756.5 66492.7 57016.4 51183.3 42802.9 36790.2 35374.3 28496.7
threshold=10.855085000000001 6.789645000000001 15.633170000000002 314.14689000000004 5.4194900000000006 13.093100000000002 623.12010000000009 9.3770850000000028 5.9555800000000003 1.0000000180025095e-35 1.0000000180025095e-35 1.0000000180025095e-35 7.4495600000000008 14.054665000000002 1.0000000180025095e-35 11.924630000000002 1.0000000180025095e-35 5.1093050000000009 1.0000000180025095e-35 1.0000000180025095e-35 1.0000000180025095e-35 1.0000000180025095e-35 405.67320500000005 16.457035000000001 18.452200000000001
decision_type=2 2 2 2 2 2 2 2 2 2 2 2 2 2 2 2 2 2 2 2 2 2 2 2 2
left_child=1 4 5 9 10 14 19 21 18 12 17 13 -3 -7 15 -2 22 -1 -6 23 -10 -5 -9 -4 -8
right_child=2 3 6 7 8 11 24 16 20 -11 -12 -13 -14 -15 -16 -17 -18 -19 -20 -21 -22 -23 -24 -25 -26
leaf_value=6.7863604629468135 0.30221816344724173 3.6741474851157463 -2.6101090382373351 2.1567059070439112 5.3505118737861261 -1.190356922470712 -3.6031304573576937 1.3215732716243536 4.4957904030418234 4.6216518041705354 7.7382675572977089 -0.12278957869320568 2.9089404462048507 -2.0238105544745295 1.1538264147288708 -0.47997699955017858 2.3784183070535851 6.1357125322649289 6.6218301518015359 -1.5782597905406095 5.8161867466036554 3.5690559294741053 0.72725534180234663 -3.2587338691673602 -3.9768103242638744
leaf_weight=105 103 114 51 116 139 69 77 107 148 37 36 23 101 122 22 97 20 123 15.999999999999998 10.999999999999998 10.999999999999998 7.9999999999999991 55 69 941
leaf_count=105 103 114 51 116 139 69 77 107 148 37 36 23 101 122 22 97 20 123 16 11 11 8 55 69 941
internal_value=-0.000231823 4.15161 -2.97594 2.49348 5.75236 -0.738323 -3.82502 1.65917 5.02874 3.50658 6.61302 -1.55076 3.31468 -1.72272 0.0448418 -0.0771465 1.25811 6.43535 5.48174 -2.86511 4.58714 2.24783 1.1198 -2.98307 -3.94855
internal_weight=2721 1136 1585 558 578 436 1149 306 314 252 264 214 215 191 222 200 182 228 155 131 159 124 162 120 1018
internal_count=2721 1136 1585 558 578 436 1149 306 314 252 264 214 215 191 222 200 182 228 155 131 159 124 162 120 1018
is_linear=0
shrinkage=0.0186753


Tree=29
num_leaves=26
num_cat=0
split_feature=0 3 0 0 0 0 0 0 0 3 3 3 0 3 0 0 0 3 0 0 0 0 0 0 3
split_gain=9.28021e+07 8.52864e+06 8.07805e+06 1.33781e+06 984124 776720 332533 191845 131986 115158 114939 87605.6 71414.4 35078.3 32953.5 28920.2 27143.2 26966.8 20620.8 20607.9 18387.8 17713.7 16218.2 12298.2 11068
threshold=425.67769000000004 1.4489950000000003 577.95843500000012 117.39847000000002 332.10803000000004 505.41109000000006 623.12010000000009 187.05199000000002 383.43862500000006 0.38223500000000005 4.5586600000000006 1.8635850000000003 458.08460500000007 5.3929950000000009 161.05902500000002 353.87503000000009 24.547045000000004 6.081570000000001 484.21777500000002 405.67320500000005 215.90377000000004 314.14689000000004 265.74850000000009 95.888140000000007 4.3626850000000008
decision_type=2 2 2 2 2 2 2 2 2 2 2 2 2 2 2 2 2 2 2 2 2 2 2 2 2
left_child=1 3 5 9 11 12 13 14 15 16 24 22 -2 -4 -5 -6 -1 -8 -14 -10 -9 -13 -3 -11 -7
right_child=2 4 6 7 8 10 17 20 19 23 -12 21 18 -15 -16 -17 -18 -19 -20 -21 -22 -23 -24 -25 -26
leaf_value=6.9646964489184695 0.35240419678637241 3.6530538521874076 -2.501814687421922 5.2858645381360869 2.1346031145847437 -0.97621503687884259 -3.5387899067717545 4.3761667998944347 1.3029303661349549 6.0885632505897958 -2.0410333314498779 2.9246200333627965 -0.10957154786125922 -3.1351142973901078 4.7554965442817094 1.5951629978100978 6.4974916071601072 -3.9023007757166619 -0.58081002797290471 0.83890844610354709 3.9709501205824504 2.4274136475561301 3.2293780646146693 5.7028033147852089 -1.3681537784792317
leaf_weight=70 98 69 56 113 73 54 77 90 63 70 105 64 75 67 64 66 114 941 57 71 69 41 58 49 47
leaf_count=70 98 69 56 113 73 54 77 90 63 70 105 64 75 67 64 66 114 941 57 71 69 41 58 49 47
internal_value=-0.000227511 4.04913 -2.93774 5.48261 2.23528 -0.775495 -3.76398 4.67115 1.47529 6.38244 -1.60839 3.12959 -0.0295149 -2.84678 5.09409 1.87847 6.67523 -3.87481 -0.313061 1.05707 4.20032 2.73047 3.45956 5.92972 -1.1586
internal_weight=2721 1144 1577 639 505 436 1141 336 273 303 206 232 230 123 177 139 184 1018 132 134 159 105 127 119 101
internal_count=2721 1144 1577 639 505 436 1141 336 273 303 206 232 230 123 177 139 184 1018 132 134 159 105 127 119 101
is_linear=0
shrinkage=0.0186753


Tree=30
num_leaves=26
num_cat=0
split_feature=2 3 3 2 2 2 2 7 2 7 2 7 7 3 2 2 7 2 7 7 7 7 2 2 2
split_gain=8.9205e+07 8.94807e+06 7.27274e+06 1.33737e+06 1.01491e+06 773558 243544 203276 161435 153795 138095 132931 125936 112895 111719 84058 71870.3 63532.1 62360.8 52309.6 51019.7 41496.2 36496.4 35017.1 25223.8
threshold=11.344175000000002 1.4812700000000001 5.1490500000000008 5.6623800000000006 9.0204900000000023 13.366535000000002 17.477795000000004 1.0000000180025095e-35 6.2497650000000009 1.0000000180025095e-35 5.2295250000000006 1.0000000180025095e-35 1.0000000180025095e-35 1.9483200000000001 10.405460000000001 14.831635 1.0000000180025095e-35 11.924630000000002 1.0000000180025095e-35 1.0000000180025095e-35 1.0000000180025095e-35 1.0000000180025095e-35 9.5792900000000021 5.1861400000000009 6.664340000000001
decision_type=2 2 2 2 2 2 2 2 2 2 2 2 2 2 2 2 2 2 2 2 2 2 2 2 2
left_child=1 3 5 7 9 12 21 10 20 13 -1 15 17 -3 19 -7 24 -2 -16 22 -5 -4 -6 -9 -10
right_child=2 4 6 8 14 11 -8 23 16 -11 -12 -13 -14 -15 18 -17 -18 -19 -20 -21 -22 -23 -24 -25 -26
leaf_value=6.3647089955949392 0.18898629483860721 3.1060566419662523 -2.9623714569896662 4.8300765064727447 1.7956462345042969 -1.4598378656495252 -3.8002879858037772 7.8954943330279717 4.1892123480722043 4.1118338985922467 5.5423515072116221 -0.27814351172445012 1.0539678588081478 2.284111444379699 0.57288907965546187 -2.2270918104825719 5.2815564952035166 -0.52443962606542194 1.9628383162250882 2.6492798333971659 6.0562811441732105 -1.5629883128341744 1.2095291604651743 6.8610463634424841 3.7083905837404822
leaf_weight=159 68 128 97 132 64 110 1021 21 82 32 129 22 29 107 84 91 15.999999999999998 121 12.999999999999998 13.999999999999998 12.999999999999998 7.9999999999999991 88 25 71
leaf_count=159 68 128 97 132 64 110 1021 21 82 32 129 22 29 107 84 91 16 121 13 14 13 8 88 25 71
internal_value=0.00298325 3.88586 -2.91599 5.35787 2.08612 -0.883011 -3.71221 6.18049 4.48286 2.89721 5.99636 -1.65635 -0.0919315 2.73181 1.2627 -1.8072 4.09063 -0.267757 0.759171 1.55693 4.94001 -2.85575 1.45632 7.33329 3.96609
internal_weight=2745 1178 1567 648 530 441 1126 334 314 267 288 223 218 235 263 201 169 189 97 166 145 105 152 46 153
internal_count=2745 1178 1567 648 530 441 1126 334 314 267 288 223 218 235 263 201 169 189 97 166 145 105 152 46 153
is_linear=0
shrinkage=0.0186753


Tree=31
num_leaves=26
num_cat=0
split_feature=0 3 3 0 3 0 0 0 3 3 3 0 0 0 0 0 3 0 0 0 0 0 0 0 1
split_gain=8.58984e+07 8.34493e+06 7.30048e+06 1.28166e+06 913519 792096 235628 185929 130374 119089 112979 101823 57545.5 28942.4 25575 24553.5 23825.5 22728.2 22698.5 20902.9 18261.7 15375 14557.3 12217.3 11189.7
threshold=431.87586000000005 1.4812700000000001 5.1490500000000008 121.01180000000001 2.3141200000000004 505.41109000000006 623.12010000000009 189.80456000000001 0.38223500000000005 1.9174550000000001 4.5586600000000006 383.43862500000006 458.08460500000007 161.05902500000002 24.547045000000004 602.00537500000007 6.0451250000000014 411.17816000000005 314.14689000000004 271.36176500000005 484.21777500000002 215.90377000000004 95.888140000000007 556.22721000000013 59.060275000000011
decision_type=2 2 2 2 2 2 2 2 2 2 2 2 2 2 2 2 2 2 2 2 2 2 2 2 2
left_child=1 3 5 8 9 12 15 13 14 19 24 -6 -2 -5 -1 -4 -8 -13 -11 -3 -14 -9 -10 -12 -7
right_child=2 4 6 7 11 10 16 21 22 18 23 17 20 -15 -16 -17 -18 -19 -20 -21 -22 -23 -24 -25 -26
leaf_value=6.7410734383186846 0.33093048545347886 3.4649281472382718 -2.4506929486150999 5.0773986750014775 1.7215639716357793 -1.0307604951633802 -3.3995214842387553 4.1830810705665797 5.8541300656420843 2.7505173645270293 -1.7128807017164573 1.1787273113182237 -0.10295408267908829 4.5883587310122103 6.2764064815819864 -3.0336349162741989 -3.7541808347194756 0.7143373057486746 2.2438415314347888 3.0000460446563113 -0.52465677117589826 3.8166834061310997 5.4601071816904065 -2.1173354291547852 -1.4827602777215754
leaf_weight=63 83 69 42 102 107 72 71 77 68 51 37 80 83 72 120 63 950 68 78 66 63 83 63 88 26
leaf_count=63 83 69 42 102 107 72 71 77 68 51 37 80 83 72 120 63 950 68 78 66 63 83 63 88 26
internal_value=0.00292757 3.84449 -2.83808 5.25781 2.07988 -0.833186 -3.64288 4.45251 6.11441 2.84992 -1.62542 1.28267 -0.0617089 4.87504 6.43637 -2.80046 -3.72952 0.965359 2.44416 3.23765 -0.284922 3.99301 5.66464 -1.99762 -1.15068
internal_weight=2745 1167 1578 648 519 452 1126 334 314 264 223 255 229 174 183 105 1021 148 129 135 146 160 131 125 98
internal_count=2745 1167 1578 648 519 452 1126 334 314 264 223 255 229 174 183 105 1021 148 129 135 146 160 131 125 98
is_linear=0
shrinkage=0.0186753


Tree=32
num_leaves=26
num_cat=0
split_feature=2 3 3 2 2 2 2 7 2 7 7 2 3 2 2 7 7 7 2 7 7 7 2 2 2
split_gain=8.27269e+07 8.29778e+06 6.74408e+06 1.24097e+06 941736 718532 225869 195687 149663 147997 147754 128239 104543 103874 98492.3 78176.6 70451.6 69367.3 50506.6 49154 39802.5 38285.8 32835.4 24479.6 23972.4
threshold=11.344175000000002 1.4812700000000001 5.1490500000000008 5.6623800000000006 9.0204900000000023 13.745735000000002 17.477795000000004 1.0000000180025095e-35 6.2497650000000009 1.0000000180025095e-35 1.0000000180025095e-35 5.2677050000000003 1.9483200000000001 10.199965000000001 12.579465000000001 1.0000000180025095e-35 1.0000000180025095e-35 1.0000000180025095e-35 14.831635 1.0000000180025095e-35 1.0000000180025095e-35 1.0000000180025095e-35 5.1861400000000009 5.1093050000000009 9.3770850000000028
decision_type=2 2 2 2 2 2 2 2 2 2 2 2 2 2 2 2 2 2 2 2 2 2 2 2 2
left_child=1 3 5 7 10 9 20 11 19 14 12 23 -3 21 -2 18 -15 -10 -7 -5 -4 24 -9 -1 -6
right_child=2 4 6 8 13 15 -8 22 17 -11 -12 -13 -14 16 -16 -17 -18 -19 -20 -21 -22 -23 -24 -25 -26
leaf_value=6.2880445535060554 -0.056127285030861437 2.9883175596874008 -2.8544761928286553 4.6489947392358388 1.8216649010803503 -1.5034622563813462 -3.6596728890430321 7.6275234186691447 3.8167170196354707 0.92401850119754603 3.9808295917883525 5.3051005712819448 2.1973613066078772 0.6690553207284704 -0.86248017841179303 -0.4806566943997907 1.993854078516079 5.1090777175274127 -2.1467052193910847 5.8525711538179825 -1.483948973806174 2.6331377321954896 6.6258183271200011 5.8276524183371299 1.284127457690998
leaf_weight=101 130 128 97 132 46 80 1021 21 153 35 32 120 107 112 89 15.999999999999998 15.999999999999998 15.999999999999998 91 12.999999999999998 7.9999999999999991 10.999999999999998 25 67 78
leaf_count=101 130 128 97 132 46 80 1021 21 153 35 32 120 107 112 89 16 16 16 91 13 8 11 25 67 78
internal_value=0.0028729 3.74211 -2.80811 5.15962 2.009 -0.850418 -3.57485 5.95204 4.31673 -0.203609 2.7903 5.77138 2.62818 1.21581 -0.383823 -1.72897 0.834655 3.93907 -1.84577 4.7569 -2.75006 1.57721 7.08312 6.10444 1.48354
internal_weight=2745 1178 1567 648 530 441 1126 334 314 254 267 288 235 263 219 187 128 169 171 145 105 135 46 168 124
internal_count=2745 1178 1567 648 530 441 1126 334 314 254 267 288 235 263 219 187 128 169 171 145 105 135 46 168 124
is_linear=0
shrinkage=0.0186753


Tree=33
num_leaves=26
num_cat=0
split_feature=3 3 3 3 3 3 3 3 7 3 7 7 7 3 3 7 3 7 3 7 7 7 3 3 3
split_gain=8.00396e+07 7.83938e+06 6.36008e+06 1.10826e+06 910058 670937 234119 160967 160916 137245 130119 127406 117852 85552.3 78634.5 76444.5 69909.3 60472.4 57694.8 57050.7 54027.8 47717.7 28953.2 26313.4 25051.1
threshold=3.2967200000000005 1.4489950000000003 5.1490500000000008 0.61337500000000011 2.2241600000000008 4.1366500000000004 5.8867900000000004 1.0285350000000002 1.0000000180025095e-35 2.7271950000000005 1.0000000180025095e-35 1.0000000180025095e-35 1.0000000180025095e-35 0.35892500000000005 4.7055550000000013 1.0000000180025095e-35 1.8635850000000003 1.0000000180025095e-35 3.5636200000000007 1.0000000180025095e-35 1.0000000180025095e-35 1.0000000180025095e-35 0.34250500000000006 5.3929950000000009 1.2286600000000003
decision_type=2 2 2 2 2 2 2 2 2 2 2 2 2 2 2 2 2 2 2 2 2 2 2 2 2
left_child=1 3 5 8 11 12 20 19 13 21 14 16 18 -1 -7 -11 -3 24 -2 -5 23 -6 -10 -4 -9
right_child=2 4 6 7 9 10 -8 17 22 15 -12 -13 -14 -15 -16 -17 -18 -19 -20 -21 -22 -23 -24 -25 -26
leaf_value=6.031304575733893 0.19500107086443982 3.0146464729100577 -2.499260874000842 4.6507193089046899 1.627131074764701 -1.3595683372943088 -3.6038570561430117 4.0354951468232532 7.5385814787178793 0.75998151630396427 -0.24065939560716101 3.9790108779176361 1.0863411256723086 5.3508837458317027 -2.1016575640002348 2.0910872695549143 2.3348993833648999 5.0264589896756782 -0.49898055257013635 5.8955571483227684 -1.5206920320524673 2.9081339698331696 6.5324356772678556 -3.0775398772251874 3.5500376447029387
leaf_weight=150 67 113 41 155 130 110 995 83 19 131 24 31 27 113 91 17 99 15.999999999999998 111 13.999999999999998 10.999999999999998 10.999999999999998 21 83 67
leaf_count=150 67 113 41 155 130 110 995 83 19 131 24 31 27 113 91 17 99 16 111 14 11 11 21 83 67
internal_value=4.48399e-05 3.69245 -2.76926 5.08837 2.01839 -0.836209 -3.50484 4.34812 5.9068 1.31011 -1.54035 2.86074 -0.0633686 5.73896 -1.69554 0.912879 2.69722 3.93507 -0.237763 4.75384 -2.77506 1.72707 7.01036 -2.88633 3.81866
internal_weight=2730 1170 1560 638 532 430 1130 335 303 289 225 243 205 263 201 148 212 166 178 169 135 141 40 124 150
internal_count=2730 1170 1560 638 532 430 1130 335 303 289 225 243 205 263 201 148 212 166 178 169 135 141 40 124 150
is_linear=0
shrinkage=0.0186753


Tree=34
num_leaves=26
num_cat=0
split_feature=3 3 3 3 3 3 3 3 3 7 7 3 7 7 7 7 3 7 3 7 7 3 3 3 3
split_gain=7.7078e+07 7.54931e+06 6.12475e+06 1.06771e+06 877435 646449 225456 182417 166988 145004 142965 106388 81301.3 81015.8 76832.6 74516.2 63453 63248.4 60633.2 52028.7 49972.6 41120.5 38490.1 25339.8 24624
threshold=3.2967200000000005 1.4489950000000003 5.1490500000000008 0.57630500000000018 2.427235 4.3058100000000001 5.8867900000000004 0.94364500000000018 1.9174550000000001 1.0000000180025095e-35 1.0000000180025095e-35 3.7662900000000001 1.0000000180025095e-35 1.0000000180025095e-35 1.0000000180025095e-35 1.0000000180025095e-35 0.31114000000000003 1.0000000180025095e-35 2.9514150000000003 1.0000000180025095e-35 1.0000000180025095e-35 4.7055550000000013 1.1390200000000001 5.3929950000000009 0.34250500000000006
decision_type=2 2 2 2 2 2 2 2 2 2 2 2 2 2 2 2 2 2 2 2 2 2 2 2 2
left_child=1 3 5 9 8 10 19 20 13 16 11 -2 18 -3 21 -10 -1 22 -6 23 -5 -7 -9 -4 -11
right_child=2 4 6 7 12 14 -8 17 15 24 -12 -13 -14 -15 -16 -17 -18 -19 -20 -21 -22 -23 -24 -25 -26
leaf_value=5.9652037763488792 -0.0056421555496072029 2.9011740243808322 -2.4525863360773221 4.6905324832252333 1.2246533070690442 -1.4650916939115484 -3.5365536254323744 4.1406815809774757 2.064167558990528 7.3977960288943834 0.91947466626906238 -0.83814890069782788 2.1507341616430415 4.2067379410280017 -0.47921520930868988 3.3376797513552821 5.3629806242510627 4.9993399566132268 0.55751029901010696 -1.4922925453544884 5.8611345017813461 -2.0624083379209468 3.5972492628098158 -3.0200657779737892 6.4470015263871474
leaf_weight=130 118 130 41 139 117 72 995 82 146 19 34 98 22 19 17 18 115 18 80 10.999999999999998 13.999999999999998 91 102 83 19
leaf_count=130 118 130 41 139 117 72 995 82 146 19 34 98 22 19 17 18 115 18 80 11 14 91 102 83 19
internal_value=4.40717e-05 3.62349 -2.71754 4.99334 1.98069 -0.820592 -3.43939 4.31122 2.6151 5.84901 -0.206169 -0.383354 1.07398 3.06766 -1.67396 2.20394 5.68253 3.94279 0.953732 -2.72323 4.79765 -1.79856 3.83943 -2.83243 6.9224
internal_weight=2730 1170 1560 638 532 430 1130 355 313 283 250 216 219 149 180 164 245 202 197 135 153 163 184 124 38
internal_count=2730 1170 1560 638 532 430 1130 355 313 283 250 216 219 149 180 164 245 202 197 135 153 163 184 124 38
is_linear=0
shrinkage=0.0186753


Tree=35
num_leaves=26
num_cat=0
split_feature=2 3 2 2 2 3 2 2 0 2 2 0 0 0 2 2 2 0 2 0 1 0 0 1 2
split_gain=7.4259e+07 7.32532e+06 5.83536e+06 1.03557e+06 861239 497717 336463 163638 143608 117700 76963.1 61370.7 50312.5 37479.4 30182.1 27939.4 26107.5 20246.9 18157.7 15681.8 13481.7 13382.8 11591.1 9449.16 7365.28
threshold=11.344175000000002 1.4489950000000003 15.633170000000002 5.6623800000000006 9.174570000000001 4.1366500000000004 17.308800000000002 8.0925550000000026 45.974530000000009 6.2497650000000009 14.466140000000001 405.67320500000005 484.21777500000002 95.888140000000007 16.693080000000005 18.452200000000001 7.5949800000000005 314.14689000000004 5.9555800000000003 458.08460500000007 59.060275000000011 215.90377000000004 24.547045000000004 51.26814000000001 13.745735000000002
decision_type=2 2 2 2 2 2 2 2 2 2 2 2 2 2 2 2 2 2 2 2 2 2 2 2 2
left_child=1 3 5 8 7 12 14 16 22 18 20 -6 19 -10 -4 -8 23 -9 -5 -2 24 -11 -1 -3 -7
right_child=2 4 6 9 11 10 15 17 13 21 -12 -13 -14 -15 -16 -17 -18 -19 -20 -21 -22 -23 -24 -25 -26
leaf_value=6.2941014053156383 0.31799626685024424 3.5774493965285603 -2.1979518762065759 4.6589353678744008 1.3151778556192557 -0.62067747028324771 -3.1274105204644447 2.505003536500277 5.5183244841797725 3.9102770206204682 -1.7705159478272348 0.68778047209693027 -0.54772942233444122 4.9989908493262947 -2.7755708051495476 -3.4847506542628945 2.7487911071075688 2.0072372466854684 4.2491593738186157 -0.070012346380834839 -1.3537328633226875 3.5592637052762512 5.9338627026877111 3.1087221419486988 -1.0257901960581146
leaf_weight=66 68 20 74 88 129 24 83 38 128 84 96 94 56 78 55 947 80 114 66 78 31 69 59 60 45
leaf_count=66 68 20 74 88 129 24 83 38 128 84 96 94 56 78 55 947 80 114 66 78 31 69 59 60 45
internal_value=4.3194e-05 3.54864 -2.67337 4.90009 1.93701 -0.722367 -3.34335 2.57048 5.6247 4.11884 -1.39282 1.05071 -0.071832 5.32168 -2.44422 -3.45596 2.98735 2.13168 4.48332 0.110704 -1.03023 3.75198 6.12407 3.2259 -0.884881
internal_weight=2730 1173 1557 638 535 398 1159 312 331 307 196 223 202 206 129 1030 160 152 154 146 100 153 125 80 69
internal_count=2730 1173 1557 638 535 398 1159 312 331 307 196 223 202 206 129 1030 160 152 154 146 100 153 125 80 69
is_linear=0
shrinkage=0.0186753


Tree=36
num_leaves=26
num_cat=0
split_feature=0 3 0 0 0 0 0 0 0 0 0 0 0 3 0 0 0 0 0 0 5 3 0 0 0
split_gain=7.08807e+07 6.69016e+06 6.15143e+06 990492 741462 532779 277272 159015 128201 98938.9 83818.4 83686.8 37230.4 36083.6 26956.5 21026.5 18802.2 18758.8 17015.1 13823.7 13420.3 13159.7 11542.9 9297.55 8512.45
threshold=428.56588500000004 1.4489950000000003 574.55022500000007 111.82555500000002 332.10803000000004 523.6649450000001 628.18693000000007 168.10502500000004 383.43862500000006 484.21777500000002 45.974530000000009 286.10802000000007 602.00537500000007 4.6317150000000007 215.90377000000004 454.91942000000006 86.651060000000015 405.67320500000005 353.87503000000009 143.35985000000002 2.5000000000000004 1.6044900000000002 314.14689000000004 659.00982500000009 189.80456000000001
decision_type=2 2 2 2 2 2 2 2 2 2 2 2 2 2 2 2 2 2 2 2 2 2 2 2 2
left_child=1 3 5 10 11 9 12 19 18 15 -1 21 -4 -7 24 -2 -12 -10 -6 -5 -11 -3 -13 -8 -9
right_child=2 4 6 7 8 13 23 14 17 20 16 22 -14 -15 -16 -17 -18 -19 -20 -21 -22 -23 -24 -25 -26
leaf_value=5.9997840375229305 0.32632566936598745 3.2603451478214525 -2.1934695714960823 4.7635121521198602 1.8587592480257749 -1.252650384132187 -3.238210015808376 4.1207126231303306 1.1330559772954909 -0.42173472810265611 5.5221775283024597 2.4965514861095941 -2.8115218859388884 -1.8289312521605881 3.479420928263913 -0.092273342055537333 5.1204455630155197 0.69076968523725357 1.4465765508396653 4.4019105966968635 -0.84230251921824439 2.8622821031022285 2.1077570835642834 -3.424679526390447 3.8212651926905403
leaf_weight=119 79 60 67 82 80 72 104 56 58 55 95 76 69 80 64 89 71 79 62 67 51 56 41 903 81
leaf_count=119 79 60 67 82 80 72 104 56 58 55 95 76 69 80 64 89 71 79 62 67 51 56 41 903 81
internal_value=-0.0051298 3.52343 -2.58464 4.80415 1.93504 -0.669227 -3.29853 4.13858 1.28558 -0.177319 5.62152 2.71272 -2.50704 -1.55596 3.79585 0.104568 5.35035 0.878015 1.67879 4.60091 -0.624083 3.06818 2.36031 -3.40542 3.94367
internal_weight=2716 1147 1569 635 512 426 1143 350 279 274 285 233 136 152 201 168 166 137 142 149 106 116 117 1007 137
internal_count=2716 1147 1569 635 512 426 1143 350 279 274 285 233 136 152 201 168 166 137 142 149 106 116 117 1007 137
is_linear=0
shrinkage=0.0186753


Tree=37
num_leaves=26
num_cat=0
split_feature=0 3 0 0 0 0 0 0 7 0 7 7 7 0 7 3 7 3 0 7 7 7 0 0 0
split_gain=6.8258e+07 6.44261e+06 5.92382e+06 953842 714026 513923 267013 153132 147877 123457 111940 108589 94823.4 69520.9 67114.5 64337.3 61202.5 58903.4 48434.8 42322.1 39987.1 39609.6 31113.2 29486.5 26134.9
threshold=428.56588500000004 1.4489950000000003 574.55022500000007 111.82555500000002 332.10803000000004 505.41109000000006 628.18693000000007 168.10502500000004 1.0000000180025095e-35 383.43862500000006 1.0000000180025095e-35 1.0000000180025095e-35 1.0000000180025095e-35 42.028740000000006 1.0000000180025095e-35 3.5636200000000007 1.0000000180025095e-35 1.8178600000000003 528.48871500000007 1.0000000180025095e-35 1.0000000180025095e-35 1.0000000180025095e-35 212.97985000000003 602.00537500000007 45.974530000000009
decision_type=2 2 2 2 2 2 2 2 2 2 2 2 2 2 2 2 2 2 2 2 2 2 2 2 2
left_child=1 3 5 8 10 12 21 20 13 19 17 18 15 -1 22 -2 -11 -3 -7 -6 -5 23 -9 -4 -10
right_child=2 4 6 7 9 11 -8 14 24 16 -12 -13 -14 -15 -16 -17 -18 -19 -20 -21 -22 -23 -24 -25 -26
leaf_value=5.7182571239247277 0.20156826453369414 2.8397246791959563 -2.2550992048490555 4.4286132788580401 1.554013932721019 -1.0403288356029377 -3.3418240443494565 3.7986631125467869 7.1048666122532635 0.72321057660710808 3.8170596001095354 -0.059110308207516005 1.001695446727511 5.0705504777443124 4.8130571876883392 -0.47116766378071784 1.9873293431465995 2.2094783016678048 -1.7164876795799182 2.7600615376740483 5.5986133831501927 -1.3289029771032916 3.2898371655096383 -2.8267675532363667 6.1646518437637825
leaf_weight=97 84 101 61 138 131 53 1007 118 15.999999999999998 122 26 20 26 143 18 121 14.999999999999998 106 122 10.999999999999998 10.999999999999998 9.9999999999999982 65 65 29
leaf_count=97 84 101 61 138 131 53 1007 118 16 122 26 20 26 143 18 121 15 106 122 11 11 10 65 65 29
internal_value=-0.00503398 3.45763 -2.53638 4.71443 1.8989 -0.656729 -3.23693 4.06129 5.51653 1.26157 2.66206 -1.36272 -0.0607596 5.33233 3.72496 -0.19551 0.861618 2.51699 -1.51171 1.64744 4.51499 -2.46022 3.61793 -2.55001 6.49895
internal_weight=2716 1147 1569 635 512 426 1143 350 285 279 233 195 231 240 201 205 137 207 175 142 149 136 183 126 45
internal_count=2716 1147 1569 635 512 426 1143 350 285 279 233 195 231 240 201 205 137 207 175 142 149 136 183 126 45
is_linear=0
shrinkage=0.0186753


Tree=38
num_leaves=26
num_cat=0
split_feature=0 0 0 0 0 0 0 7 0 0 7 7 7 0 7 0 0 7 0 7 7 7 0 0 0
split_gain=6.57323e+07 6.19447e+06 5.70462e+06 897431 716185 494907 257133 142405 142108 118889 113293 104571 91314.7 66987.1 61939.4 61716 60613.3 58937.9 46642.7 40756.1 38507.5 38143.9 28395.5 27640.2 25167.9
threshold=428.56588500000004 239.13249000000005 574.55022500000007 111.82555500000002 332.10803000000004 505.41109000000006 628.18693000000007 1.0000000180025095e-35 168.10502500000004 383.43862500000006 1.0000000180025095e-35 1.0000000180025095e-35 1.0000000180025095e-35 45.974530000000009 1.0000000180025095e-35 265.74850000000009 458.08460500000007 1.0000000180025095e-35 528.48871500000007 1.0000000180025095e-35 1.0000000180025095e-35 1.0000000180025095e-35 602.00537500000007 212.97985000000003 45.974530000000009
decision_type=2 2 2 2 2 2 2 2 2 2 2 2 2 2 2 2 2 2 2 2 2 2 2 2 2
left_child=1 3 5 7 10 12 21 13 20 19 15 18 16 -1 23 -3 -2 -11 -7 -6 -5 22 -4 -10 -9
right_child=2 4 6 8 9 11 -8 24 14 17 -12 -13 -14 -15 -16 -17 -18 -19 -20 -21 -22 -23 -24 -25 -26
leaf_value=5.5925813795525512 0.20143885500155689 2.9650676193628014 -2.2129844115606727 4.3459074861035667 1.5249921836586615 -1.0209003400204424 -3.2794142805918529 6.9721809187598973 3.7277217979797959 0.70970436247698532 3.7703408341624653 -0.058006403106202788 0.98298843281659232 4.962217607733856 4.7416487912718317 2.2740007828414459 -0.45405724131150377 1.9502153123201047 -1.6844316651109053 2.7085163381694297 5.4940573671377848 -1.3040852564315666 -2.7739767085101201 3.2354183325340311 6.0495247453840584
leaf_weight=103 82 65 61 138 131 53 1007 15.999999999999998 118 122 27 20 26 137 17 147 123 14.999999999999998 122 10.999999999999998 10.999999999999998 9.9999999999999982 65 60 29
leaf_count=103 82 65 61 138 131 53 1007 16 118 122 27 20 26 137 17 147 123 15 122 11 11 10 65 60 29
internal_value=-0.00493995 3.39306 -2.48901 4.63851 1.88072 -0.644464 -3.17648 5.41351 3.99644 1.23801 2.63099 -1.33727 -0.0596249 5.23275 3.66464 2.48588 -0.191859 0.845527 -1.48348 1.61667 4.43067 -2.41427 -2.50239 3.56178 6.37758
internal_weight=2716 1147 1569 629 518 426 1143 285 344 279 239 195 231 240 195 212 205 137 175 142 149 136 126 178 45
internal_count=2716 1147 1569 629 518 426 1143 285 344 279 239 195 231 240 195 212 205 137 175 142 149 136 126 178 45
is_linear=0
shrinkage=0.0186753


Tree=39
num_leaves=26
num_cat=0
split_feature=0 3 0 3 3 0 0 0 7 7 0 7 7 7 3 7 0 0 3 7 7 7 0 0 0
split_gain=6.26964e+07 5.72204e+06 5.65024e+06 874562 636058 542358 301793 145350 127483 123653 90101.2 88458.2 71962.8 65458 61690.6 58838.2 55083.1 54453.7 53732.9 39536.6 35887.8 30525.7 27608 27021 26445.6
threshold=425.67769000000004 1.4489950000000003 556.22721000000013 0.57630500000000018 2.2241600000000008 623.12010000000009 499.65687000000008 168.10502500000004 1.0000000180025095e-35 1.0000000180025095e-35 364.64807000000008 1.0000000180025095e-35 1.0000000180025095e-35 1.0000000180025095e-35 1.8178600000000003 1.0000000180025095e-35 48.875230000000009 602.00537500000007 3.5636200000000007 1.0000000180025095e-35 1.0000000180025095e-35 1.0000000180025095e-35 220.21497000000002 405.67320500000005 528.48871500000007
decision_type=2 2 2 2 2 2 2 2 2 2 2 2 2 2 2 2 2 2 2 2 2 2 2 2 2
left_child=1 3 6 9 8 17 11 19 14 16 21 18 24 23 -3 22 -1 20 -2 -5 -4 -6 -9 -12 -8
right_child=2 4 5 7 10 -7 12 15 -10 -11 13 -13 -14 -15 -16 -17 -18 -19 -20 -21 -22 -23 -24 -25 -26
leaf_value=5.4691107265505909 0.21433330328327724 2.7282378548530328 -2.0139455233164316 4.2654881036501822 1.6264023069518876 -3.2071683269186773 -0.95694070403288178 3.6297490415188909 3.6815848115794583 6.3195599320848679 1.0598114303567479 1.0213005111404749 0.028536504063463617 2.0078239155157878 2.0922441428908818 4.6119836465326713 4.8943932557585956 -2.588270209950513 -0.4043213926344007 5.3806295198800491 -0.90056009443021001 2.9106080312632434 3.1082848098226021 0.55313138342884349 -1.475357894439618
leaf_weight=112 91 103 123 146 83 1004 74 135 31 38 100 27 19 20 110 18 121 63 106 11.999999999999998 10.999999999999998 6.9999999999999991 48 58 64
leaf_count=112 91 103 123 146 83 1004 74 135 31 38 100 27 19 20 110 18 121 63 106 12 11 7 48 58 64
internal_value=0.00447157 3.33917 -2.40275 4.53089 1.87279 -3.03137 -0.421189 3.92635 2.56264 5.33175 1.24472 0.0188454 -1.04901 1.00123 2.39979 3.59318 5.17065 -2.13544 -0.118547 4.35018 -1.92255 1.72628 3.49297 0.873815 -1.19737
internal_weight=2724 1142 1582 630 512 1201 381 359 244 271 268 224 157 178 213 201 233 197 197 158 134 90 183 158 138
internal_count=2724 1142 1582 630 512 1201 381 359 244 271 268 224 157 178 213 201 233 197 197 158 134 90 183 158 138
is_linear=0
shrinkage=0.0186753


Tree=40
num_leaves=26
num_cat=0
split_feature=3 3 3 3 3 3 3 3 3 3 3 3 3 3 3 3 3 1 3 3 3 1 4 1 1
split_gain=6.03402e+07 6.04749e+06 4.84727e+06 1.02485e+06 576871 524124 186598 153333 89682.9 88571.8 78460.7 53581.4 48367.3 36466.3 27622.2 19136.3 15763 15762.4 12883.5 11904.1 9851.16 8526.47 13075.5 7965.69 5972.06
threshold=3.2967200000000005 1.5765150000000003 5.1490500000000008 0.76477500000000009 2.427235 4.3058100000000001 5.9924350000000013 0.38223500000000005 1.9483200000000001 1.0639650000000003 3.8916700000000004 2.9514150000000003 4.6317150000000007 5.3929950000000009 0.55589500000000014 0.18121500000000004 3.5030700000000006 54.52320000000001 2.1031650000000002 1.3282150000000001 1.6999550000000003 52.622130000000006 70.472380000000015 58.129315000000013 57.237100000000005
decision_type=2 2 2 2 2 2 2 2 2 2 2 2 2 2 2 2 2 2 2 2 2 2 2 2 2
left_child=1 3 5 7 8 10 13 15 20 -5 16 -6 -7 -4 -9 -1 -2 -15 -10 -11 -3 22 -21 -18 -14
right_child=2 4 6 9 11 12 -8 14 18 19 -12 -13 24 17 -16 -17 23 -19 -20 21 -22 -23 -24 -25 -26
leaf_value=5.720712673589647 0.2885573629772295 2.9184765267607036 -2.0372010783044527 3.9496137173005494 1.1948639195081974 -1.1503016274535165 -3.169992054262269 4.9007189734198748 2.1970232061775348 3.4590128394916793 -0.63224184091568647 0.61655720560445049 -1.5812873981450277 -1.9858448870098282 4.4417533578339494 5.2967421943397293 0.0089234055224602891 -2.727292417375538 1.8308373816253842 3.0847180760701103 2.5249284681509048 2.9648794768592093 3.7108388095437204 -0.35255032255420793 -1.8696658513120348
leaf_weight=53 58 31 45 129 130 75 945 85 48 95 96 98 39 10.999999999999998 99 124 73 110 111 30 78 42 19 30 70
leaf_count=53 58 31 45 129 130 75 945 85 48 95 96 98 39 11 99 124 73 110 111 30 78 42 19 30 70
internal_value=0.00438806 3.20292 -2.411 4.35202 1.6368 -0.75443 -3.06855 5.03127 2.22424 3.57358 -0.209665 0.946293 -1.51532 -2.49109 4.65378 5.42369 0.0423058 -2.65989 1.94138 3.31279 2.63686 3.16014 3.3275 -0.0963602 -1.76648
internal_weight=2724 1172 1552 676 496 441 1111 361 268 315 257 228 184 166 184 177 161 121 159 186 109 91 49 103 109
internal_count=2724 1172 1552 676 496 441 1111 361 268 315 257 228 184 166 184 177 161 121 159 186 109 91 49 103 109
is_linear=0
shrinkage=0.0186753


Tree=41
num_leaves=26
num_cat=0
split_feature=2 2 2 2 2 2 2 7 2 7 2 7 7 7 2 7 7 2 2 7 2 0 3 7 2
split_gain=5.81647e+07 5.35649e+06 5.21673e+06 1.00103e+06 506561 411420 298047 161007 113155 109706 91016.4 76561 74970 74068.2 64653.9 62897.9 50200.3 45660.7 41822.5 35085.4 31226.9 27462.8 27204.5 54168.5 24820
threshold=10.855085000000001 15.021460000000001 7.3043300000000011 5.7045700000000013 17.308800000000002 9.174570000000001 12.931285000000001 1.0000000180025095e-35 5.2677050000000003 1.0000000180025095e-35 6.436440000000001 1.0000000180025095e-35 1.0000000180025095e-35 1.0000000180025095e-35 8.2870100000000022 1.0000000180025095e-35 1.0000000180025095e-35 16.189480000000003 11.924630000000002 1.0000000180025095e-35 14.054665000000002 405.67320500000005 6.0451250000000014 1.0000000180025095e-35 5.1861400000000009
decision_type=2 2 2 2 2 2 2 2 2 2 2 2 2 2 2 2 2 2 2 2 2 2 2 2 2
left_child=2 6 3 7 16 9 12 8 -1 14 19 20 18 -12 -4 21 17 -3 -2 -5 -8 -7 23 -6 -9
right_child=1 4 5 10 22 15 11 24 -10 -11 13 -13 -14 -15 -16 -17 -18 -19 -20 -21 -22 -23 -24 -25 -26
leaf_value=5.1477922608945859 0.21553630356618181 -1.8671953727020958 2.3349207929576292 3.7738369912512653 -2.9281921014267382 1.0653857810323761 -0.88049818977896055 6.5275349181934033 4.4293384038938841 3.2472336776723907 3.0810149998956717 0.094282521128910377 1.0382849170923754 4.2657094031543252 1.7179614135430825 1.9911657294993574 -0.99538546563012953 -2.4814494356678689 -0.34368866273592602 4.8673040205902671 -1.4189436176449408 0.55024917219285718 -3.1128544468104744 -1.3851064049536506 5.6320675254582291
leaf_weight=163 98 102 120 147 67 118 89 19 144 29 149 21 25 21 117 21 14.999999999999998 72 89 10.999999999999998 65 52 936 8.9999999999999982 25
leaf_count=163 98 102 120 147 67 118 89 19 144 29 149 21 25 21 117 21 15 72 89 11 65 52 936 9 25
internal_value=0.00430615 -2.30382 3.2308 4.26905 -2.91951 1.68819 -0.393086 4.96222 4.8108 2.16301 3.52727 -0.963519 0.0777896 3.22736 2.03035 1.02693 -2.03201 -2.12137 -0.0506189 3.84996 -1.10776 0.907815 -3.08526 -2.74546 6.01875
internal_weight=2724 1588 1136 679 1201 457 387 351 307 266 328 175 212 170 237 191 189 174 187 158 154 170 1012 76 44
internal_count=2724 1588 1136 679 1201 457 387 351 307 266 328 175 212 170 237 191 189 174 187 158 154 170 1012 76 44
is_linear=0
shrinkage=0.0186753


Tree=42
num_leaves=26
num_cat=0
split_feature=3 3 3 3 3 3 3 7 3 7 7 3 7 3 7 3 3 7 7 7 3 3 3 7 3
